{"learner":{"attributes":{"scikit_learn":"{\"_estimator_type\": \"classifier\"}"},"feature_names":["amount","hour_of_day","is_weekend","receiver_account_age_days","receiver_report_count","receiver_tx_count_24h","receiver_unique_senders_24h","previous_connections_count","avg_transaction_amount_7d","amount_deviation","velocity_ratio","is_first_interaction"],"feature_types":["float","int","int","int","int","int","int","int","float","float","float","int"],"gradient_booster":{"model":{"cats":{"enc":[],"feature_segments":[],"sorted_idx":[]},"gbtree_model_param":{"num_parallel_tree":"1","num_trees":"500"},"iteration_indptr":[0,1,2,3,4,5,6,7,8,9,10,11,12,13,14,15,16,17,18,19,20,21,22,23,24,25,26,27,28,29,30,31,32,33,34,35,36,37,38,39,40,41,42,43,44,45,46,47,48,49,50,51,52,53,54,55,56,57,58,59,60,61,62,63,64,65,66,67,68,69,70,71,72,73,74,75,76,77,78,79,80,81,82,83,84,85,86,87,88,89,90,91,92,93,94,95,96,97,98,99,100,101,102,103,104,105,106,107,108,109,110,111,112,113,114,115,116,117,118,119,120,121,122,123,124,125,126,127,128,129,130,131,132,133,134,135,136,137,138,139,140,141,142,143,144,145,146,147,148,149,150,151,152,153,154,155,156,157,158,159,160,161,162,163,164,165,166,167,168,169,170,171,172,173,174,175,176,177,178,179,180,181,182,183,184,185,186,187,188,189,190,191,192,193,194,195,196,197,198,199,200,201,202,203,204,205,206,207,208,209,210,211,212,213,214,215,216,217,218,219,220,221,222,223,224,225,226,227,228,229,230,231,232,233,234,235,236,237,238,239,240,241,242,243,244,245,246,247,248,249,250,251,252,253,254,255,256,257,258,259,260,261,262,263,264,265,266,267,268,269,270,271,272,273,274,275,276,277,278,279,280,281,282,283,284,285,286,287,288,289,290,291,292,293,294,295,296,297,298,299,300,301,302,303,304,305,306,307,308,309,310,311,312,313,314,315,316,317,318,319,320,321,322,323,324,325,326,327,328,329,330,331,332,333,334,335,336,337,338,339,340,341,342,343,344,345,346,347,348,349,350,351,352,353,354,355,356,357,358,359,360,361,362,363,364,365,366,367,368,369,370,371,372,373,374,375,376,377,378,379,380,381,382,383,384,385,386,387,388,389,390,391,392,393,394,395,396,397,398,399,400,401,402,403,404,405,406,407,408,409,410,411,412,413,414,415,416,417,418,419,420,421,422,423,424,425,426,427,428,429,430,431,432,433,434,435,436,437,438,439,440,441,442,443,444,445,446,447,448,449,450,451,452,453,454,455,456,457,458,459,460,461,462,463,464,465,466,467,468,469,470,471,472,473,474,475,476,477,478,479,480,481,482,483,484,485,486,487,488,489,490,491,492,493,494,495,496,497,498,499,500],"tree_info":[0,0,0,0,0,0,0,0,0,0,0,0,0,0,0,0,0,0,0,0,0,0,0,0,0,0,0,0,0,0,0,0,0,0,0,0,0,0,0,0,0,0,0,0,0,0,0,0,0,0,0,0,0,0,0,0,0,0,0,0,0,0,0,0,0,0,0,0,0,0,0,0,0,0,0,0,0,0,0,0,0,0,0,0,0,0,0,0,0,0,0,0,0,0,0,0,0,0,0,0,0,0,0,0,0,0,0,0,0,0,0,0,0,0,0,0,0,0,0,0,0,0,0,0,0,0,0,0,0,0,0,0,0,0,0,0,0,0,0,0,0,0,0,0,0,0,0,0,0,0,0,0,0,0,0,0,0,0,0,0,0,0,0,0,0,0,0,0,0,0,0,0,0,0,0,0,0,0,0,0,0,0,0,0,0,0,0,0,0,0,0,0,0,0,0,0,0,0,0,0,0,0,0,0,0,0,0,0,0,0,0,0,0,0,0,0,0,0,0,0,0,0,0,0,0,0,0,0,0,0,0,0,0,0,0,0,0,0,0,0,0,0,0,0,0,0,0,0,0,0,0,0,0,0,0,0,0,0,0,0,0,0,0,0,0,0,0,0,0,0,0,0,0,0,0,0,0,0,0,0,0,0,0,0,0,0,0,0,0,0,0,0,0,0,0,0,0,0,0,0,0,0,0,0,0,0,0,0,0,0,0,0,0,0,0,0,0,0,0,0,0,0,0,0,0,0,0,0,0,0,0,0,0,0,0,0,0,0,0,0,0,0,0,0,0,0,0,0,0,0,0,0,0,0,0,0,0,0,0,0,0,0,0,0,0,0,0,0,0,0,0,0,0,0,0,0,0,0,0,0,0,0,0,0,0,0,0,0,0,0,0,0,0,0,0,0,0,0,0,0,0,0,0,0,0,0,0,0,0,0,0,0,0,0,0,0,0,0,0,0,0,0,0,0,0,0,0,0,0,0,0,0,0,0,0,0,0,0,0,0,0,0,0,0,0,0,0,0,0,0,0,0,0,0,0,0,0,0,0,0,0,0,0,0,0,0,0,0,0,0,0,0,0,0,0,0,0,0,0,0,0,0,0,0,0,0,0,0,0,0,0,0,0,0,0,0,0,0,0,0],"trees":[{"base_weights":[3.6482485E-3,6.310242E-1,-5.9937354E-2,1.1463963E0,-1.9812472E0,1.3708197E0,-2.2973266E-1,3.903714E-2,-5.9880476E-2,1.5773078E0,5.5582285E-1,-1.8461758E0,1.9542749E0,1.913347E0,1.4008276E0,8.520907E-1,-5.873016E-2,-5.960396E-2,-1.4342358E0,-3E-2,1.9802747E0,3.2258015E-2,5.838604E-2,4.3631416E-2,-5.1383704E-2,2.751586E-2,-4.4640843E-2,-5.3268824E-2,-1.1586637E-2,1.8736461E-2,5.9602402E-2],"categories":[],"categories_nodes":[],"categories_segments":[],"categories_sizes":[],"default_left":[0,0,0,0,0,0,0,0,0,0,0,0,0,0,0,0,0,0,0,0,0,0,0,0,0,0,0,0,0,0,0],"id":0,"left_children":[1,3,-1,5,7,9,11,-1,-1,13,15,17,19,21,23,25,-1,-1,27,-1,29,-1,-1,-1,-1,-1,-1,-1,-1,-1,-1],"loss_changes":[5.039653E3,4.1159585E3,0E0,7.8868115E2,2.702356E1,3.685005E2,1.2702437E3,0E0,0E0,1.0114209E2,3.332212E2,9.124207E0,1.3739075E1,1.4430664E1,1.9451074E2,6.2151398E1,0E0,0E0,1.9421234E1,0E0,9.3688965E-2,0E0,0E0,0E0,0E0,0E0,0E0,0E0,0E0,0E0,0E0],"parents":[2147483647,0,0,1,1,3,3,4,4,5,5,6,6,9,9,10,10,11,11,12,12,13,13,14,14,15,15,18,18,20,20],"right_children":[2,4,-1,6,8,10,12,-1,-1,14,16,18,20,22,24,26,-1,-1,28,-1,30,-1,-1,-1,-1,-1,-1,-1,-1,-1,-1],"split_conditions":[7E0,2.14104E3,-5.9937354E-2,4.06E2,1.98E2,1.08658E3,5.24239E3,3.903714E-2,-5.9880476E-2,5.5E1,2.03E2,4.0391E0,5.5902E0,8E0,1.5E1,1.7E1,-5.873016E-2,-5.960396E-2,1.4E1,-3E-2,8.2431E0,3.2258015E-2,5.838604E-2,4.3631416E-2,-5.1383704E-2,2.751586E-2,-4.4640843E-2,-5.3268824E-2,-1.1586637E-2,1.8736461E-2,5.9602402E-2],"split_indices":[7,8,0,3,3,8,0,0,0,3,3,9,9,5,6,5,0,0,5,0,9,0,0,0,0,0,0,0,0,0,0],"split_type":[0,0,0,0,0,0,0,0,0,0,0,0,0,0,0,0,0,0,0,0,0,0,0,0,0,0,0,0,0,0,0],"sum_hessian":[4.0113188E3,3.0545688E3,9.5675E2,2.5517068E3,5.028622E2,2.1939194E3,3.577874E2,1.8622048E0,5.01E2,1.7496831E3,4.4423624E2,2.0569882E2,1.520886E2,5.990945E2,1.1505886E3,3.9798624E2,4.625E1,1.505E2,5.519882E1,1E0,1.510886E2,2.3872047E1,5.752225E2,1.1316575E3,1.8931103E1,3.878051E2,1.0181103E1,4.1112206E1,1.4086615E1,1.1811024E0,1.4990749E2],"tree_param":{"num_deleted":"0","num_feature":"12","num_nodes":"31","size_leaf_vector":"1"}},{"base_weights":[-1.4918656E-2,5.957779E-1,-5.8194518E-2,1.1000888E0,-1.9237915E0,1.3237841E0,-2.3160726E-1,3.8284775E-2,-5.814147E-2,1.532241E0,6.097804E-1,-1.813361E0,1.898549E0,1.3527133E0,5.8388785E-2,8.7334305E-1,-1.5170157E0,-5.647503E-2,4.808084E-2,-1.4066927E-3,5.7693783E-2,5.7484705E-2,3.6729474E-2,2.7795183E-2,-3.5041366E-2,7.877809E-3,-5.6999594E-2],"categories":[],"categories_nodes":[],"categories_segments":[],"categories_sizes":[],"default_left":[0,0,0,0,0,0,0,0,0,0,0,0,0,0,0,0,0,0,0,0,0,0,0,0,0,0,0],"id":1,"left_children":[1,3,-1,5,7,9,11,-1,-1,13,15,17,19,21,-1,23,25,-1,-1,-1,-1,-1,-1,-1,-1,-1,-1],"loss_changes":[4.72401E3,3.8785527E3,0E0,7.577329E2,2.5703003E1,3.230996E2,1.2384102E3,0E0,0E0,1.2257764E2,2.7802887E2,5.2816895E1,7.581482E0,8.289526E1,0E0,4.881656E1,3.7843063E1,0E0,0E0,0E0,0E0,0E0,0E0,0E0,0E0,0E0,0E0],"parents":[2147483647,0,0,1,1,3,3,4,4,5,5,6,6,9,9,10,10,11,11,12,12,13,13,15,15,16,16],"right_children":[2,4,-1,6,8,10,12,-1,-1,14,16,18,20,22,-1,24,26,-1,-1,-1,-1,-1,-1,-1,-1,-1,-1],"split_conditions":[7E0,2.14104E3,-5.8194518E-2,4.06E2,1.98E2,1.03433E3,5.24239E3,3.8284775E-2,-5.814147E-2,3E0,2.03E2,3E0,8.2431E0,3.1E1,5.8388785E-2,1.8E1,1.08658E3,-5.647503E-2,4.808084E-2,-1.4066927E-3,5.7693783E-2,5.7484705E-2,3.6729474E-2,2.7795183E-2,-3.5041366E-2,7.877809E-3,-5.6999594E-2],"split_indices":[7,8,0,3,3,8,0,0,0,4,3,4,9,3,0,5,8,0,0,0,0,0,0,0,0,0,0],"split_type":[0,0,0,0,0,0,0,0,0,0,0,0,0,0,0,0,0,0,0,0,0,0,0,0,0,0,0],"sum_hessian":[4.0166409E3,3.0497595E3,9.6688135E2,2.541602E3,5.0815753E2,2.1760757E3,3.655263E2,1.8614955E0,5.0629602E2,1.683441E3,4.9263467E2,2.0985016E2,1.5567615E2,1.1772622E3,5.0617877E2,4.388408E2,5.3793873E1,2.0612714E2,3.7230268E0,1.93083E0,1.5374532E2,2.1590201E2,9.613602E2,4.282346E2,1.0606196E1,9.582007E0,4.4211864E1],"tree_param":{"num_deleted":"0","num_feature":"12","num_nodes":"27","size_leaf_vector":"1"}},{"base_weights":[-3.4687032E-3,5.7702184E-1,-5.659718E-2,1.0782056E0,-1.8713824E0,1.2980264E0,-2.4170932E-1,3.7565168E-2,-5.6550797E-2,1.4994969E0,5.254256E-1,-1.7480434E0,1.8518513E0,1.8606092E0,1.3611432E0,7.8391176E-1,-5.5449795E-2,5.2177742E-2,-1.8673322E0,3.8609114E-1,5.6317914E-2,2.7227603E-2,5.611948E-2,4.1941892E-2,-5.6495726E-2,2.4985882E-2,-5.0698314E-2,-2.1819272E-3,-5.6520343E-2,1.7369911E-2,2.5477712E-3],"categories":[],"categories_nodes":[],"categories_segments":[],"categories_sizes":[],"default_left":[0,0,0,0,0,0,0,0,0,0,0,0,0,0,0,0,0,0,0,0,0,0,0,0,0,0,0,0,0,0,0],"id":2,"left_children":[1,3,-1,5,7,9,11,-1,-1,13,15,17,19,21,23,25,-1,-1,27,29,-1,-1,-1,-1,-1,-1,-1,-1,-1,-1,-1],"loss_changes":[4.367652E3,3.7497139E3,0E0,7.3606274E2,2.4492554E1,3.3759814E2,1.1475752E3,0E0,0E0,8.358789E1,2.782854E2,9.124927E1,4.9490356E0,2.8449707E0,1.5235669E2,5.07641E1,0E0,0E0,6E0,1.7477989E-1,0E0,0E0,0E0,0E0,0E0,0E0,0E0,0E0,0E0,0E0,0E0],"parents":[2147483647,0,0,1,1,3,3,4,4,5,5,6,6,9,9,10,10,11,11,12,12,13,13,14,14,15,15,18,18,19,19],"right_children":[2,4,-1,6,8,10,12,-1,-1,14,16,18,20,22,24,26,-1,-1,28,30,-1,-1,-1,-1,-1,-1,-1,-1,-1,-1,-1],"split_conditions":[7E0,2.14104E3,-5.659718E-2,4.02E2,1.98E2,1.08658E3,5.24239E3,3.7565168E-2,-5.6550797E-2,3.5E1,2.03E2,6E0,5.47932E3,4E0,3.1E1,1.8E1,-5.5449795E-2,5.2177742E-2,4.06E2,1.4E1,5.6317914E-2,2.7227603E-2,5.611948E-2,4.1941892E-2,-5.6495726E-2,2.4985882E-2,-5.0698314E-2,-2.1819272E-3,-5.6520343E-2,1.7369911E-2,2.5477712E-3],"split_indices":[7,8,0,3,3,8,0,0,0,3,3,1,0,6,5,5,0,0,3,1,0,0,0,0,0,0,0,0,0,0,0],"split_type":[0,0,0,0,0,0,0,0,0,0,0,0,0,0,0,0,0,0,0,0,0,0,0,0,0,0,0,0,0,0,0],"sum_hessian":[3.9935723E3,3.0531072E3,9.4046515E2,2.5347983E3,5.183089E2,2.1729314E3,3.6186703E2,1.8594242E0,5.1644946E2,1.7227504E3,4.5018094E2,2.1054396E2,1.5132307E2,4.737591E2,1.2489912E3,4.065771E2,4.360384E1,6.51462E0,2.0402934E2,2.8548143E0,1.4846826E2,5.8918705E0,4.6786725E2,1.2355006E3,1.3490646E1,3.993386E2,7.238504E0,1.9281832E0,2.0210117E2,1.1778455E0,1.6769688E0],"tree_param":{"num_deleted":"0","num_feature":"12","num_nodes":"31","size_leaf_vector":"1"}},{"base_weights":[3.2593193E-3,5.737481E-1,-5.513202E-2,1.048028E0,-5.5084288E-2,1.2618363E0,-2.2321992E-1,1.4520025E0,5.74125E-1,-1.6493274E0,1.5666393E0,1.2802145E0,5.5507384E-2,8.3360744E-1,-1.7379606E0,5.1583048E-2,-1.8179475E0,1.6506362E0,-9.55722E-1,5.4856375E-2,3.500923E-2,2.5737781E-2,-2.0133873E-2,-7.722042E-3,-5.407628E-2,-1.8807779E-3,-5.5052917E-2,5.0699096E-2,-3.604404E-2,1.7157432E-2,-4.3676842E-2],"categories":[],"categories_nodes":[],"categories_segments":[],"categories_sizes":[],"default_left":[0,0,0,0,0,0,0,0,0,0,0,0,0,0,0,0,0,0,0,0,0,0,0,0,0,0,0,0,0,0,0],"id":3,"left_children":[1,3,-1,5,-1,7,9,11,13,15,17,19,-1,21,23,-1,25,27,29,-1,-1,-1,-1,-1,-1,-1,-1,-1,-1,-1,-1],"loss_changes":[4.1877544E3,3.4811414E3,0E0,6.917771E2,0E0,2.84E2,9.3970013E2,1.1431177E2,2.8549115E2,1.19469666E2,3.6179382E1,7.2053955E1,0E0,1.6177246E1,4.1349335E0,0E0,5.771179E0,1.9802551E1,5.3381367E0,0E0,0E0,0E0,0E0,0E0,0E0,0E0,0E0,0E0,0E0,0E0,0E0],"parents":[2147483647,0,0,1,1,3,3,5,5,6,6,7,7,8,8,9,9,10,10,11,11,13,13,14,14,16,16,17,17,18,18],"right_children":[2,4,-1,6,-1,8,10,12,14,16,18,20,-1,22,24,-1,26,28,30,-1,-1,-1,-1,-1,-1,-1,-1,-1,-1,-1,-1],"split_conditions":[7E0,2.14104E3,-5.513202E-2,4.02E2,-5.5084288E-2,1.07207E3,1.18362E1,3E0,2.03E2,6E0,1.1905E0,3.1E1,5.5507384E-2,1.3E1,1.08658E3,5.1583048E-2,4.06E2,8.15E2,9.104E1,5.4856375E-2,3.500923E-2,2.5737781E-2,-2.0133873E-2,-7.722042E-3,-5.407628E-2,-1.8807779E-3,-5.5052917E-2,5.0699096E-2,-3.604404E-2,1.7157432E-2,-4.3676842E-2],"split_indices":[7,8,0,3,0,8,9,4,3,1,10,3,0,6,8,0,3,3,8,0,0,0,0,0,0,0,0,0,0,0,0],"split_type":[0,0,0,0,0,0,0,0,0,0,0,0,0,0,0,0,0,0,0,0,0,0,0,0,0,0,0,0,0,0,0],"sum_hessian":[3.9853228E3,3.0430332E3,9.422897E2,2.5431018E3,4.9993137E2,2.1769697E3,3.6613205E2,1.704523E3,4.7244687E2,2.0381596E2,1.6231609E2,1.1937828E3,5.107401E2,4.2534985E2,4.709702E1,9.277096E0,1.9453886E2,1.5741948E2,4.896604E0,2.0174515E2,9.9203766E2,4.1900793E2,6.3418937E0,2.1768923E0,4.4920128E1,1.9274137E0,1.9261145E2,1.5567993E2,1.7395378E0,1.1724014E0,3.7242026E0],"tree_param":{"num_deleted":"0","num_feature":"12","num_nodes":"31","size_leaf_vector":"1"}},{"base_weights":[9.016204E-3,5.628994E-1,-5.3781863E-2,1.0307925E0,-1.7844095E0,1.2334304E0,-2.559701E-1,1.879238E-2,-5.373773E-2,1.4259703E0,5.847798E-1,5.3793594E-2,-1.3949918E0,1.2542444E0,5.4119706E-2,8.2609993E-1,-1.5898473E0,-5.381531E-2,1.1367452E0,4.874377E-2,3.2653995E-2,2.6272746E-2,-2.3317432E-2,-5.1644552E-2,3.663127E-2,-4.4158064E-2,4.8857003E-2],"categories":[],"categories_nodes":[],"categories_segments":[],"categories_sizes":[],"default_left":[0,0,0,0,0,0,0,0,0,0,0,0,0,0,0,0,0,0,0,0,0,0,0,0,0,0,0],"id":4,"left_children":[1,3,-1,5,7,9,11,-1,-1,13,15,-1,17,19,-1,21,23,-1,25,-1,-1,-1,-1,-1,-1,-1,-1],"loss_changes":[3.9771917E3,3.349694E3,0E0,6.6320044E2,9.492554E0,2.7349512E2,8.117086E2,0E0,0E0,1.0764526E2,2.6604535E2,0E0,2.276289E2,6.994873E1,0E0,3.688614E1,2.0873383E1,0E0,4.2192333E1,0E0,0E0,0E0,0E0,0E0,0E0,0E0,0E0],"parents":[2147483647,0,0,1,1,3,3,4,4,5,5,6,6,9,9,10,10,12,12,13,13,15,15,16,16,18,18],"right_children":[2,4,-1,6,8,10,12,-1,-1,14,16,-1,18,20,-1,22,24,-1,26,-1,-1,-1,-1,-1,-1,-1,-1],"split_conditions":[7E0,2.14104E3,-5.3781863E-2,4.06E2,2.06E2,1.03433E3,6E0,1.879238E-2,-5.373773E-2,3E0,2.03E2,5.3793594E-2,2.3E1,6.3E1,5.4119706E-2,1.7E1,4.4848E0,-5.381531E-2,1.46309E1,4.874377E-2,3.2653995E-2,2.6272746E-2,-2.3317432E-2,-5.1644552E-2,3.663127E-2,-4.4158064E-2,4.8857003E-2],"split_indices":[7,8,0,3,3,8,1,0,0,4,3,0,1,3,0,5,9,0,9,0,0,0,0,0,0,0,0],"split_type":[0,0,0,0,0,0,0,0,0,0,0,0,0,0,0,0,0,0,0,0,0,0,0,0,0,0,0],"sum_hessian":[3.9833254E3,3.0472446E3,9.3608075E2,2.5412532E3,5.0599142E2,2.195543E3,3.457103E2,1.1770028E0,5.0481442E2,1.6920814E3,5.034615E2,1.23307304E2,2.22403E2,1.1664894E3,5.2559204E2,4.537307E2,4.9730755E1,1.9238583E2,3.0017162E1,3.578406E2,8.0864886E2,4.4054025E2,1.3190455E1,4.787621E1,1.8545433E0,4.4454007E0,2.5571762E1],"tree_param":{"num_deleted":"0","num_feature":"12","num_nodes":"27","size_leaf_vector":"1"}},{"base_weights":[-2.8625452E-3,5.3944397E-1,-5.2535277E-2,1.1462461E0,-1.0874239E0,9.552606E-1,5.288737E-2,-1.688102E0,1.488572E0,1.1168683E0,4.3853706E-1,4.9053174E-2,-1.7368045E0,5.235189E-2,6.402819E-1,1.7056206E0,9.981091E-1,5.694479E-4,1.4027069E0,-2.0094296E-1,-5.2398518E-2,-4.984843E-2,1.5961864E0,1.6946245E-2,5.193253E-2,-3.8920663E-2,3.0342808E-2,-1.725591E-2,2.022472E-2,-4.2037476E-2,4.3587763E-2,-3.9692968E-2,3.6983915E-2,2.0523297E-2,4.9609628E-2],"categories":[],"categories_nodes":[],"categories_segments":[],"categories_sizes":[],"default_left":[0,0,0,0,0,0,0,0,0,0,0,0,0,0,0,0,0,0,0,0,0,0,0,0,0,0,0,0,0,0,0,0,0,0,0],"id":5,"left_children":[1,3,-1,5,7,9,-1,11,13,15,17,-1,19,-1,21,23,25,27,29,31,-1,-1,33,-1,-1,-1,-1,-1,-1,-1,-1,-1,-1,-1,-1],"loss_changes":[3.7751814E3,3.0013752E3,0E0,2.5906348E2,1.2807911E3,1.4085364E2,0E0,1.11338135E2,3.2986145E1,8.840381E1,1.7097754E2,0E0,9.613647E0,0E0,8.619952E1,5.2646484E0,3.416919E1,1.0875722E2,1.9844574E1,1.0202446E1,0E0,0E0,3.01651E-1,0E0,0E0,0E0,0E0,0E0,0E0,0E0,0E0,0E0,0E0,0E0,0E0],"parents":[2147483647,0,0,1,1,3,3,4,4,5,5,7,7,8,8,9,9,10,10,12,12,14,14,15,15,16,16,17,17,18,18,19,19,22,22],"right_children":[2,4,-1,6,8,10,-1,12,14,16,18,-1,20,-1,22,24,26,28,30,32,-1,-1,34,-1,-1,-1,-1,-1,-1,-1,-1,-1,-1,-1,-1],"split_conditions":[7E0,4.02E2,-5.2535277E-2,3E0,1.24178E1,1.98E2,5.288737E-2,6E0,6E0,3.1E1,6.9757E0,4.9053174E-2,4.06E2,5.235189E-2,2.3E1,8E0,3E0,1E0,3E0,1E0,-5.2398518E-2,-4.984843E-2,4.4E2,1.6946245E-2,5.193253E-2,-3.8920663E-2,3.0342808E-2,-1.725591E-2,2.022472E-2,-4.2037476E-2,4.3587763E-2,-3.9692968E-2,3.6983915E-2,2.0523297E-2,4.9609628E-2],"split_indices":[7,3,0,4,9,3,0,1,1,3,9,0,3,0,1,5,5,4,5,4,0,0,3,0,0,0,0,0,0,0,0,0,0,0,0],"split_type":[0,0,0,0,0,0,0,0,0,0,0,0,0,0,0,0,0,0,0,0,0,0,0,0,0,0,0,0,0,0,0,0,0,0,0],"sum_hessian":[3.9797512E3,3.0380688E3,9.416823E2,2.2129578E3,8.2511115E2,1.6916056E3,5.213521E2,6.693702E2,1.5574097E2,1.2877076E3,4.0389798E2,9.197631E0,6.6017255E2,1.1877172E2,3.6969246E1,2.1390488E2,1.0738027E3,2.784256E2,1.2547236E2,4.3275146E0,6.5584503E2,1.0630902E1,2.6338345E1,5.1767254E0,2.0872815E2,5.6378717E0,1.0681649E3,1.5019159E2,1.2823402E2,1.7343063E0,1.2373805E2,2.470825E0,1.8566895E0,2.3260264E0,2.401232E1],"tree_param":{"num_deleted":"0","num_feature":"12","num_nodes":"35","size_leaf_vector":"1"}},{"base_weights":[1.8516833E-2,5.489635E-1,-5.1379427E-2,9.870207E-1,-1.6991563E0,1.1816795E0,-2.10715E-1,3.6984175E-2,-5.1381648E-2,1.3538021E0,5.450673E-1,-1.544598E0,5.1277712E-2,1.1961432E0,5.1715042E-2,7.83153E-1,-5.153012E-2,4.8621558E-2,-1.68263E0,4.6568006E-2,3.1027403E-2,2.4835132E-2,-4.9270645E-2,7.751356E-3,-5.1425364E-2],"categories":[],"categories_nodes":[],"categories_segments":[],"categories_sizes":[],"default_left":[0,0,0,0,0,0,0,0,0,0,0,0,0,0,0,0,0,0,0,0,0,0,0,0,0],"id":6,"left_children":[1,3,-1,5,7,9,11,-1,-1,13,15,17,-1,19,-1,21,-1,-1,23,-1,-1,-1,-1,-1,-1],"loss_changes":[3.6316428E3,2.9828696E3,0E0,5.910864E2,2.1760742E1,2.3813916E2,9.121272E2,0E0,0E0,9.8011475E1,2.5220158E2,9.451056E1,0E0,6.7934814E1,0E0,4.7097748E1,0E0,0E0,1.2799561E1,0E0,0E0,0E0,0E0,0E0,0E0],"parents":[2147483647,0,0,1,1,3,3,4,4,5,5,6,6,9,9,10,10,11,11,13,13,15,15,18,18],"right_children":[2,4,-1,6,8,10,12,-1,-1,14,16,18,-1,20,-1,22,-1,-1,24,-1,-1,-1,-1,-1,-1],"split_conditions":[7E0,2.14104E3,-5.1379427E-2,4.02E2,1.98E2,1.08658E3,5.47932E3,3.6984175E-2,-5.1381648E-2,3E0,2.03E2,6E0,5.1277712E-2,6.3E1,5.1715042E-2,1.8E1,-5.153012E-2,4.8621558E-2,4.06E2,4.6568006E-2,3.1027403E-2,2.4835132E-2,-4.9270645E-2,7.751356E-3,-5.1425364E-2],"split_indices":[7,8,0,3,3,8,0,0,0,4,3,1,0,3,0,5,0,0,3,0,0,0,0,0,0],"split_type":[0,0,0,0,0,0,0,0,0,0,0,0,0,0,0,0,0,0,0,0,0,0,0,0,0],"sum_hessian":[3.9527637E3,3.0261904E3,9.265732E2,2.533154E3,4.9303656E2,2.1790269E3,3.5412714E2,1.8566908E0,4.9117987E2,1.714379E3,4.6464783E2,2.0907187E2,1.4505525E2,1.2051405E3,5.092385E2,4.2100363E2,4.3644188E1,8.28732E0,2.0078455E2,3.739575E2,8.3118304E2,4.1403464E2,6.9689984E0,3.0963328E0,1.9768822E2],"tree_param":{"num_deleted":"0","num_feature":"12","num_nodes":"25","size_leaf_vector":"1"}},{"base_weights":[-7.964178E-3,5.1112807E-1,-5.0306987E-2,9.543676E-1,-1.6074629E0,1.138022E0,-1.8850106E-1,5.121556E-1,-5.0329626E-2,1.3062646E0,4.7970322E-1,-1.5787796E0,1.6463325E0,-4.715723E-2,9.6708244E-1,1.1466098E0,5.0614975E-2,6.9960535E-1,-5.0288126E-2,4.567314E-2,-5.0312527E-2,3.027947E-1,5.0182536E-2,2.6465154E-1,4.2163715E-2,4.870728E-2,3.11862E-2,2.2255803E-2,-4.7780845E-2,3.694065E-2,-3.0275373E-2,2.7934836E-2,-1.7543873E-2],"categories":[],"categories_nodes":[],"categories_segments":[],"categories_sizes":[],"default_left":[0,0,0,0,0,0,0,0,0,0,0,0,0,0,0,0,0,0,0,0,0,0,0,0,0,0,0,0,0,0,0,0,0],"id":7,"left_children":[1,3,-1,5,7,9,11,13,-1,15,17,19,21,-1,23,25,-1,27,-1,-1,-1,29,-1,31,-1,-1,-1,-1,-1,-1,-1,-1,-1],"loss_changes":[3.3808552E3,2.7967578E3,0E0,5.170305E2,7.753772E1,2.3434839E2,8.7439526E2,1.790909E1,0E0,1.0078516E2,2.0665263E2,6.1984283E1,4.7401123E0,0E0,4.187834E0,5.925537E1,0E0,3.9344482E1,0E0,0E0,0E0,6.2027597E0,0E0,4.4636536E0,0E0,0E0,0E0,0E0,0E0,0E0,0E0,0E0,0E0],"parents":[2147483647,0,0,1,1,3,3,4,4,5,5,6,6,7,7,9,9,10,10,11,11,12,12,14,14,15,15,17,17,21,21,23,23],"right_children":[2,4,-1,6,8,10,12,14,-1,16,18,20,22,-1,24,26,-1,28,-1,-1,-1,30,-1,32,-1,-1,-1,-1,-1,-1,-1,-1,-1],"split_conditions":[7E0,2.00136E3,-5.0306987E-2,4.06E2,1.98E2,1.08658E3,5.24239E3,4.375E-1,-5.0329626E-2,3E0,2.03E2,6E0,5.47932E3,-4.715723E-2,2.08631E3,3.5E1,5.0614975E-2,1.8E1,-5.0288126E-2,4.567314E-2,-5.0312527E-2,4.54E2,5.0182536E-2,8E0,4.2163715E-2,4.870728E-2,3.11862E-2,2.2255803E-2,-4.7780845E-2,3.694065E-2,-3.0275373E-2,2.7934836E-2,-1.7543873E-2],"split_indices":[7,8,0,3,3,8,0,10,0,4,3,1,0,0,8,3,0,5,0,0,0,3,0,1,0,0,0,0,0,0,0,0,0],"split_type":[0,0,0,0,0,0,0,0,0,0,0,0,0,0,0,0,0,0,0,0,0,0,0,0,0,0,0,0,0,0,0,0,0],"sum_hessian":[3.900507E3,2.9756719E3,9.248353E2,2.4612852E3,5.1438654E2,2.120529E3,3.4075623E2,1.628614E1,4.981004E2,1.6881216E3,4.3240747E2,1.9394273E2,1.468135E2,2.478159E0,1.3807981E1,1.1923556E3,4.9576596E2,3.9299844E2,3.9409016E1,5.5137453E0,1.8842899E2,3.0715084E0,1.4374199E2,5.9222145E0,7.885766E0,2.1599461E2,9.7636096E2,3.865494E2,6.449028E0,1.8345435E0,1.2369648E0,3.2645354E0,2.657679E0],"tree_param":{"num_deleted":"0","num_feature":"12","num_nodes":"33","size_leaf_vector":"1"}},{"base_weights":[-8.133816E-3,4.964686E-1,-4.9308643E-2,9.136933E-1,-1.6305459E0,1.1007051E0,-2.2814678E-1,3.558029E-2,-4.931001E-2,1.2745858E0,4.9058238E-1,-1.5240265E0,1.6135328E0,1.5711365E0,1.1173323E0,7.285627E-1,-1.4905941E0,2.3930234E-1,-1.5519547E0,-1.8941986E-3,4.9080916E-2,2.2754787E-2,4.803008E-2,3.5104636E-2,-5.492675E-2,2.3299295E-2,-3.3279736E-2,-1.0221221E-2,-4.7669053E-2,-2.8313862E-3,1.7337663E-2,-4.9083836E-2,-3.8558476E-2],"categories":[],"categories_nodes":[],"categories_segments":[],"categories_sizes":[],"default_left":[0,0,0,0,0,0,0,0,0,0,0,0,0,0,0,0,0,0,0,0,0,0,0,0,0,0,0,0,0,0,0,0,0],"id":8,"left_children":[1,3,-1,5,7,9,11,-1,-1,13,15,17,19,21,23,25,27,29,31,-1,-1,-1,-1,-1,-1,-1,-1,-1,-1,-1,-1,-1,-1],"loss_changes":[3.214223E3,2.6429067E3,0E0,5.317412E2,2.0000977E1,2.2628442E2,8.404084E2,0E0,0E0,7.583667E1,2.2550917E2,1.054599E1,5.5917664E0,1.27196045E1,1.720094E2,3.847238E1,5.2699966E0,5.164165E-1,2.4654236E0,0E0,0E0,0E0,0E0,0E0,0E0,0E0,0E0,0E0,0E0,0E0,0E0,0E0,0E0],"parents":[2147483647,0,0,1,1,3,3,4,4,5,5,6,6,9,9,10,10,11,11,12,12,13,13,14,14,15,15,16,16,17,17,18,18],"right_children":[2,4,-1,6,8,10,12,-1,-1,14,16,18,20,22,24,26,28,30,32,-1,-1,-1,-1,-1,-1,-1,-1,-1,-1,-1,-1,-1,-1],"split_conditions":[7E0,2.14104E3,-4.9308643E-2,4.02E2,1.98E2,1.07207E3,5.24239E3,3.558029E-2,-4.931001E-2,5.5E1,2E2,4.06E2,8.2431E0,8E0,1.5E1,1.7E1,2.03E2,3.12156E3,4.0391E0,-1.8941986E-3,4.9080916E-2,2.2754787E-2,4.803008E-2,3.5104636E-2,-5.492675E-2,2.3299295E-2,-3.3279736E-2,-1.0221221E-2,-4.7669053E-2,-2.8313862E-3,1.7337663E-2,-4.9083836E-2,-3.8558476E-2],"split_indices":[7,8,0,3,3,8,0,0,0,3,3,3,9,5,6,5,3,0,9,0,0,0,0,0,0,0,0,0,0,0,0,0,0],"split_type":[0,0,0,0,0,0,0,0,0,0,0,0,0,0,0,0,0,0,0,0,0,0,0,0,0,0,0,0,0,0,0,0,0],"sum_hessian":[3.8927595E3,2.975435E3,9.1732434E2,2.4879763E3,4.874588E2,2.1378696E3,3.501066E2,1.8458319E0,4.8561298E2,1.6628734E3,4.7499622E2,2.0560625E2,1.4450034E2,5.7310785E2,1.0897656E3,4.2462253E2,5.0373703E1,3.0876827E0,2.0251857E2,1.8893292E0,1.4261101E2,2.1251926E1,5.518559E2,1.0711769E3,1.8588785E1,4.1435995E2,1.0262546E1,4.321666E0,4.6052036E1,1.9184701E0,1.1692127E0,1.5002795E2,5.249062E1],"tree_param":{"num_deleted":"0","num_feature":"12","num_nodes":"33","size_leaf_vector":"1"}},{"base_weights":[-5.1323972E-5,5.2328974E-1,-1.1900971E0,2.7030757E-1,4.8794903E-2,4.8422456E-2,-1.5267226E0,6.2091446E-1,-4.3721467E-1,-1.5916487E0,4.6511482E-2,1.5485512E0,4.5948845E-1,-7.3667914E-1,1.682234E0,-1.6083876E0,-1.1611493E0,1.581404E0,4.6997198E-1,-8.067E-1,5.2931374E-1,-2.4959347E-1,-1.5684786E0,5.099367E-2,9.813258E-3,-9.518496E-1,-4.843246E-2,-4.7043514E-2,5.096647E-1,7.064002E-3,4.767755E-2,3.647008E-2,-1.8082773E-2,-1.3623117E-2,-4.3438137E-2,1.804127E-2,-2.1381078E-2,-2.2810997E-2,6.304251E-3,3.591978E-2,-4.7873773E-2,-4.391693E-2,1.7501827E-2,-3.6723867E-2,4.273544E-2],"categories":[],"categories_nodes":[],"categories_segments":[],"categories_sizes":[],"default_left":[0,0,0,0,0,0,0,0,0,0,0,0,0,0,0,0,0,0,0,0,0,0,0,0,0,0,0,0,0,0,0,0,0,0,0,0,0,0,0,0,0,0,0,0,0],"id":9,"left_children":[1,3,5,7,-1,-1,9,11,13,15,-1,17,19,21,23,25,27,29,31,33,35,37,39,-1,-1,41,-1,-1,43,-1,-1,-1,-1,-1,-1,-1,-1,-1,-1,-1,-1,-1,-1,-1,-1],"loss_changes":[2.3904385E3,7.4357983E2,1.1091163E3,5.3850995E2,0E0,0E0,2.1168506E2,2.1660388E2,4.579261E2,5.5268555E0,0E0,6.8641357E0,1.0984152E2,2.5532321E2,1.570343E0,2.3613281E0,2.9357456E1,1.8218994E0,6.947286E0,1.4055935E1,1.05457184E2,9.3910545E1,1.9505371E1,0E0,0E0,9.814401E0,0E0,0E0,1.59890785E1,0E0,0E0,0E0,0E0,0E0,0E0,0E0,0E0,0E0,0E0,0E0,0E0,0E0,0E0,0E0,0E0],"parents":[2147483647,0,0,1,1,2,2,3,3,6,6,7,7,8,8,9,9,11,11,12,12,13,13,14,14,15,15,16,16,17,17,18,18,19,19,20,20,21,21,22,22,25,25,28,28],"right_children":[2,4,6,8,-1,-1,10,12,14,16,-1,18,20,22,24,26,28,30,32,34,36,38,40,-1,-1,42,-1,-1,44,-1,-1,-1,-1,-1,-1,-1,-1,-1,-1,-1,-1,-1,-1,-1,-1],"split_conditions":[4.02E2,3E0,6E0,1.98E2,4.8794903E-2,4.8422456E-2,1.743483E4,3.2E1,5.47932E3,2.3E1,4.6511482E-2,1.2049E3,2E0,1.01714E3,1.3E1,4.06E2,8.0014E0,3E0,7E0,3.02027E3,1.3E1,1E0,1E0,5.099367E-2,9.813258E-3,6.613E0,-4.843246E-2,-4.7043514E-2,4.90754E3,7.064002E-3,4.767755E-2,3.647008E-2,-1.8082773E-2,-1.3623117E-2,-4.3438137E-2,1.804127E-2,-2.1381078E-2,-2.2810997E-2,6.304251E-3,3.591978E-2,-4.7873773E-2,-4.391693E-2,1.7501827E-2,-3.6723867E-2,4.273544E-2],"split_indices":[3,4,1,3,0,0,0,3,0,1,0,8,6,8,6,3,9,6,1,0,6,4,1,0,0,9,0,0,0,0,0,0,0,0,0,0,0,0,0,0,0,0,0,0,0],"split_type":[0,0,0,0,0,0,0,0,0,0,0,0,0,0,0,0,0,0,0,0,0,0,0,0,0,0,0,0,0,0,0,0,0,0,0,0,0,0,0,0,0,0,0,0,0],"sum_hessian":[3.8362131E3,2.6648599E3,1.1713531E3,2.1687725E3,4.9608752E2,1.251367E2,1.0462166E3,1.4502401E3,7.185323E2,1.0250706E3,2.114596E1,2.1368774E2,1.2365524E3,6.3014874E2,8.838354E1,9.840711E2,4.0999413E1,2.0691893E2,6.7688155E0,6.4075516E1,1.1724768E3,3.9824457E2,2.3190422E2,8.700212E1,1.3814186E0,1.0398242E1,9.7367285E2,3.3018425E1,7.980985E0,1.3792189E0,2.0553972E2,3.9144683E0,2.854347E0,4.244471E1,2.1630808E1,1.1086676E3,6.3809196E1,1.8834088E2,2.0990367E2,1.8488936E0,2.3005533E2,7.832387E0,2.565855E0,2.6398888E0,5.3410964E0],"tree_param":{"num_deleted":"0","num_feature":"12","num_nodes":"45","size_leaf_vector":"1"}},{"base_weights":[-1.1117796E-2,5.008694E-1,-1.1820866E0,2.58682E-1,4.7867008E-2,4.7508515E-2,-1.4966574E0,6.0496396E-1,-4.6522418E-1,-1.5574675E0,4.5586605E-2,1.5264947E0,4.5049083E-1,-7.4941605E-1,1.5901165E0,-1.5628746E0,3.0444574E-2,4.6569934E-1,1.5652326E0,-1.0508305E0,5.3716654E-1,-2.923448E-1,-1.5096191E0,4.9602237E-2,-3.0315412E-2,-1.5793308E0,-1.1383172E0,2.909712E-2,-1.5827248E-2,4.7184337E-2,8.248063E-3,-4.1381028E-2,4.6749082E-3,1.8164484E-2,-1.8153612E-2,-1.5092836E-3,-4.844438E-2,-6.9531626E-3,-4.7493946E-2,-2.8543752E-2,-4.7560535E-2,-4.1510604E-2,1.9859616E-2],"categories":[],"categories_nodes":[],"categories_segments":[],"categories_sizes":[],"default_left":[0,0,0,0,0,0,0,0,0,0,0,0,0,0,0,0,0,0,0,0,0,0,0,0,0,0,0,0,0,0,0,0,0,0,0,0,0,0,0,0,0,0,0],"id":10,"left_children":[1,3,5,7,-1,-1,9,11,13,15,-1,17,19,21,23,25,-1,27,29,31,33,35,37,-1,-1,39,41,-1,-1,-1,-1,-1,-1,-1,-1,-1,-1,-1,-1,-1,-1,-1,-1],"loss_changes":[2.2790984E3,7.0084784E2,1.0085321E3,5.4351324E2,0E0,0E0,1.9291846E2,2.0804327E2,4.1110138E2,1.5756836E1,0E0,7.904175E0,1.641638E2,2.1401532E2,1.5754852E1,5.308838E0,0E0,4.93146E0,1.5454102E0,2.7552734E1,9.317227E1,1.2369182E2,2.1380615E1,0E0,0E0,2.1831055E0,1.9263512E1,0E0,0E0,0E0,0E0,0E0,0E0,0E0,0E0,0E0,0E0,0E0,0E0,0E0,0E0,0E0,0E0],"parents":[2147483647,0,0,1,1,2,2,3,3,6,6,7,7,8,8,9,9,11,11,12,12,13,13,14,14,15,15,17,17,18,18,19,19,20,20,21,21,22,22,25,25,26,26],"right_children":[2,4,6,8,-1,-1,10,12,14,16,-1,18,20,22,24,26,-1,28,30,32,34,36,38,-1,-1,40,42,-1,-1,-1,-1,-1,-1,-1,-1,-1,-1,-1,-1,-1,-1,-1,-1],"split_conditions":[4.02E2,3E0,6E0,1.98E2,4.7867008E-2,4.7508515E-2,1.743483E4,3.1E1,5.3236E3,3E0,4.5586605E-2,9E0,4E0,1.01714E3,1.06164E3,2.3E1,3.0444574E-2,1.28025E3,1.74612E3,7E0,1.3E1,2.1E1,2.03E2,4.9602237E-2,-3.0315412E-2,4.06E2,1.376541E4,2.909712E-2,-1.5827248E-2,4.7184337E-2,8.248063E-3,-4.1381028E-2,4.6749082E-3,1.8164484E-2,-1.8153612E-2,-1.5092836E-3,-4.844438E-2,-6.9531626E-3,-4.7493946E-2,-2.8543752E-2,-4.7560535E-2,-4.1510604E-2,1.9859616E-2],"split_indices":[3,4,1,3,0,0,0,3,0,4,0,5,5,8,8,1,0,8,8,6,6,5,3,0,0,3,0,0,0,0,0,0,0,0,0,0,0,0,0,0,0,0,0],"split_type":[0,0,0,0,0,0,0,0,0,0,0,0,0,0,0,0,0,0,0,0,0,0,0,0,0,0,0,0,0,0,0,0,0,0,0,0,0,0,0,0,0,0,0],"sum_hessian":[3.7995447E3,2.644049E3,1.1554956E3,2.1660708E3,4.7797827E2,1.1759215E2,1.0379034E3,1.4653042E3,7.007667E2,1.0178658E3,2.003765E1,2.0908667E2,1.2562175E3,6.1620013E2,8.456658E1,1.01612225E3,1.7435243E0,7.8251657E0,2.012615E2,6.795945E1,1.188258E3,3.8568936E2,2.3051074E2,8.291296E1,1.6536217E0,9.755875E2,4.0534702E1,5.206021E0,2.6191454E0,1.9986862E2,1.3928874E0,5.3303417E1,1.4656029E1,1.1216461E3,6.661188E1,3.2689902E2,5.879035E1,1.2765437E1,2.1774532E2,1.0776214E1,9.6481134E2,3.5876404E1,4.6583014E0],"tree_param":{"num_deleted":"0","num_feature":"12","num_nodes":"43","size_leaf_vector":"1"}},{"base_weights":[-1.1022545E-2,4.7303098E-1,-4.7360875E-2,8.681359E-1,-1.543547E0,1.0394725E0,-1.9867273E-1,3.4869045E-2,-4.669838E-2,1.2113895E0,4.377456E-1,-1.4361607E0,1.5333219E0,1.0696394E0,4.7041807E-2,6.476491E-1,-1.4995264E0,4.502968E-2,-4.6714786E-2,1.591512E-3,4.660374E-2,-2.6459122E-2,3.2812025E-2,2.0720392E-2,-2.5356457E-2,-7.3318705E-3,-4.670009E-2],"categories":[],"categories_nodes":[],"categories_segments":[],"categories_sizes":[],"default_left":[0,0,0,0,0,0,0,0,0,0,0,0,0,0,0,0,0,0,0,0,0,0,0,0,0,0,0],"id":11,"left_children":[1,3,-1,5,7,9,11,-1,-1,13,15,17,19,21,-1,23,25,-1,-1,-1,-1,-1,-1,-1,-1,-1,-1],"loss_changes":[2.8548992E3,2.2917227E3,0E0,4.3967432E2,1.8471802E1,2.1378735E2,7.1711176E2,0E0,0E0,7.976245E1,1.8881744E2,7.166196E1,4.075287E0,5.5316284E1,0E0,2.7402649E1,2.880104E0,0E0,0E0,0E0,0E0,0E0,0E0,0E0,0E0,0E0,0E0],"parents":[2147483647,0,0,1,1,3,3,4,4,5,5,6,6,9,9,10,10,11,11,12,12,13,13,15,15,16,16],"right_children":[2,4,-1,6,8,10,12,-1,-1,14,16,18,20,22,-1,24,26,-1,-1,-1,-1,-1,-1,-1,-1,-1,-1],"split_conditions":[7E0,2.14104E3,-4.7360875E-2,4.06E2,1.98E2,1.07207E3,5.24239E3,3.4869045E-2,-4.669838E-2,3E0,2.03E2,6E0,5.47932E3,3E0,4.7041807E-2,1.7E1,1.08658E3,4.502968E-2,-4.6714786E-2,1.591512E-3,4.660374E-2,-2.6459122E-2,3.2812025E-2,2.0720392E-2,-2.5356457E-2,-7.3318705E-3,-4.670009E-2],"split_indices":[7,8,0,3,3,8,0,0,0,4,3,1,0,5,0,5,8,0,0,0,0,0,0,0,0,0,0],"split_type":[0,0,0,0,0,0,0,0,0,0,0,0,0,0,0,0,0,0,0,0,0,0,0,0,0,0,0],"sum_hessian":[3.7602153E3,2.8736204E3,8.865951E2,2.4033125E3,4.7030777E2,2.0707605E3,3.325521E2,1.8373806E0,4.6847037E2,1.6098135E3,4.6094708E2,1.9406555E2,1.3848654E2,1.1548466E3,4.5496683E2,4.1648645E2,4.4460636E1,7.2271595E0,1.868384E2,1.9073341E0,1.3657921E2,1.3649657E1,1.1411969E3,4.0534018E2,1.114627E1,2.1658354E0,4.22948E1],"tree_param":{"num_deleted":"0","num_feature":"12","num_nodes":"27","size_leaf_vector":"1"}},{"base_weights":[3.478755E-4,4.6907714E-1,-4.655785E-2,8.657166E-1,-1.4900954E0,1.0857451E0,7.809034E-2,8.347516E-2,-4.595294E-2,5.6922626E-1,1.2749453E0,5.9166783E-1,-1.5119879E0,3.2064566E-1,-3.76958E-2,8.7627137E-1,-8.1668764E-1,-8.208216E-1,1.3020636E0,6.378816E-1,-8.6923695E-1,-5.541299E-1,-4.598005E-2,-2.8601453E-1,8.909715E-1,3.817778E-2,1.6384237E-2,4.4255253E-2,-4.1725006E-2,-3.780935E-2,3.7290376E-2,3.3201005E-2,4.5288283E-2,-1.7871872E-2,2.0319358E-2,3.496039E-2,-3.9742507E-2,1.6468229E-2,-3.4318104E-2,-4.969663E-2,3.188437E-2,5.4627135E-3,3.1438507E-2],"categories":[],"categories_nodes":[],"categories_segments":[],"categories_sizes":[],"default_left":[0,0,0,0,0,0,0,0,0,0,0,0,0,0,0,0,0,0,0,0,0,0,0,0,0,0,0,0,0,0,0,0,0,0,0,0,0,0,0,0,0,0,0],"id":12,"left_children":[1,3,-1,5,7,9,11,13,-1,15,17,19,21,23,-1,25,27,29,31,33,35,37,-1,39,41,-1,-1,-1,-1,-1,-1,-1,-1,-1,-1,-1,-1,-1,-1,-1,-1,-1,-1],"loss_changes":[2.7318506E3,2.2422593E3,0E0,4.156471E2,3.1988403E1,1.825105E2,4.2953986E2,4.6880608E0,0E0,2.1539508E2,7.901782E1,2.7389175E1,1.6947021E0,4.494138E0,0E0,5.3403015E1,1.2313069E2,1.8014389E1,5.3245605E1,1.9172302E1,1.323151E1,3.4128258E0,0E0,1.4135544E1,5.389919E-1,0E0,0E0,0E0,0E0,0E0,0E0,0E0,0E0,0E0,0E0,0E0,0E0,0E0,0E0,0E0,0E0,0E0,0E0],"parents":[2147483647,0,0,1,1,3,3,4,4,5,5,6,6,7,7,9,9,10,10,11,11,12,12,13,13,15,15,16,16,17,17,18,18,19,19,20,20,21,21,23,23,24,24],"right_children":[2,4,-1,6,8,10,12,14,-1,16,18,20,22,24,-1,26,28,30,32,34,36,38,-1,40,42,-1,-1,-1,-1,-1,-1,-1,-1,-1,-1,-1,-1,-1,-1,-1,-1,-1,-1],"split_conditions":[7E0,2.00136E3,-4.655785E-2,1.07207E3,1.98E2,1E0,2.03E2,1.7627E0,-4.595294E-2,3.99E2,3E0,1.7E1,1.08658E3,1.087E0,-3.76958E-2,1.12E2,6E0,8E0,1.4E1,4E0,1E1,2.63E2,-4.598005E-2,8E0,8.8E1,3.817778E-2,1.6384237E-2,4.4255253E-2,-4.1725006E-2,-3.780935E-2,3.7290376E-2,3.3201005E-2,4.5288283E-2,-1.7871872E-2,2.0319358E-2,3.496039E-2,-3.9742507E-2,1.6468229E-2,-3.4318104E-2,-4.969663E-2,3.188437E-2,5.4627135E-3,3.1438507E-2],"split_indices":[7,8,0,8,3,4,3,9,0,3,5,5,8,9,0,3,1,6,5,5,3,3,0,6,3,0,0,0,0,0,0,0,0,0,0,0,0,0,0,0,0,0,0],"split_type":[0,0,0,0,0,0,0,0,0,0,0,0,0,0,0,0,0,0,0,0,0,0,0,0,0,0,0,0,0,0,0,0,0,0,0,0,0,0,0,0,0,0,0],"sum_hessian":[3.7526187E3,2.8828145E3,8.698042E2,2.39791E3,4.8490475E2,1.8740134E3,5.2389636E2,1.2483451E1,4.7242133E2,5.0348944E2,1.370524E3,3.9646918E2,1.274272E2,1.1252546E1,1.2309054E0,4.1247464E2,9.10148E1,1.7133602E1,1.3533904E3,3.8485806E2,1.1611104E1,3.2804744E0,1.2414673E2,5.6941447E0,5.558401E0,1.8614854E2,2.263261E2,1.7918562E1,7.309624E1,1.4446565E1,2.6870372E0,7.0041766E2,6.529727E2,1.14833765E1,3.733747E2,1.8389565E0,9.772147E0,1.1670734E0,2.113401E0,2.711178E0,2.982967E0,1.399326E0,4.1590753E0],"tree_param":{"num_deleted":"0","num_feature":"12","num_nodes":"43","size_leaf_vector":"1"}},{"base_weights":[1.0658498E-2,4.753747E-1,-4.580424E-2,9.764014E-1,-9.271412E-1,1.4564238E0,8.34985E-1,-1.4766914E0,1.2570007E0,8.212128E-1,4.524457E-2,8.6639005E-1,-5.4319944E-2,4.1098062E-2,-1.5040487E0,-1.0988487E0,4.5232613E-2,-6.3904274E-1,1.0154024E0,7.5204915E-1,1.5531949E0,-4.5274436E-2,-9.269268E-1,3.1643566E-2,-4.382213E-2,2.9892068E-2,-5.2814934E-2,3.5190783E-2,-9.38041E-3,2.2972418E-2,-5.305126E-2,-2.7733676E-2,4.7093507E-2,-3.927046E-2,2.0643778E-2],"categories":[],"categories_nodes":[],"categories_segments":[],"categories_sizes":[],"default_left":[0,0,0,0,0,0,0,0,0,0,0,0,0,0,0,0,0,0,0,0,0,0,0,0,0,0,0,0,0,0,0,0,0,0,0],"id":13,"left_children":[1,3,-1,5,7,9,11,13,15,17,-1,19,-1,-1,21,23,-1,25,27,29,31,-1,33,-1,-1,-1,-1,-1,-1,-1,-1,-1,-1,-1,-1],"loss_changes":[2.6722034E3,2.0190115E3,0E0,1.424591E2,9.097947E2,1.4543213E1,1.3759949E2,4.916162E1,9.180562E1,1.152737E1,0E0,1.2594714E2,0E0,0E0,3.656006E-1,1.343314E1,0E0,1.1138389E1,7.5358505E0,4.9330322E1,1.0907776E1,0E0,5.7405944E0,0E0,0E0,0E0,0E0,0E0,0E0,0E0,0E0,0E0,0E0,0E0,0E0],"parents":[2147483647,0,0,1,1,3,3,4,4,5,5,6,6,7,7,8,8,9,9,11,11,14,14,15,15,17,17,18,18,19,19,20,20,22,22],"right_children":[2,4,-1,6,8,10,12,14,16,18,-1,20,-1,-1,22,24,-1,26,28,30,32,-1,34,-1,-1,-1,-1,-1,-1,-1,-1,-1,-1,-1,-1],"split_conditions":[7E0,4.06E2,-4.580424E-2,3.7E1,1.09197E1,1.2E1,1.8E1,6E0,5.47932E3,4.211E-1,4.524457E-2,5.3236E3,-5.4319944E-2,4.1098062E-2,8.2431E0,3E0,4.5232613E-2,6E0,6E0,3.1E1,2.8393E0,-4.5274436E-2,4.85335E3,3.1643566E-2,-4.382213E-2,2.9892068E-2,-5.2814934E-2,3.5190783E-2,-9.38041E-3,2.2972418E-2,-5.305126E-2,-2.7733676E-2,4.7093507E-2,-3.927046E-2,2.0643778E-2],"split_indices":[7,3,0,3,9,5,6,1,0,10,0,0,0,0,9,1,0,1,7,5,9,0,0,0,0,0,0,0,0,0,0,0,0,0,0],"split_type":[0,0,0,0,0,0,0,0,0,0,0,0,0,0,0,0,0,0,0,0,0,0,0,0,0,0,0,0,0,0,0,0,0,0,0],"sum_hessian":[3.7380222E3,2.87094E3,8.670824E2,2.1155107E3,7.554291E2,4.7929556E2,1.6362152E3,6.03825E2,1.5160403E2,3.7363102E1,4.4193246E2,1.6176852E3,1.8530104E1,5.2806253E0,5.9854443E2,1.4258828E1,1.373452E2,4.1165895E0,3.3246513E1,1.3886023E3,2.2908282E2,5.917015E2,6.842942E0,1.7758601E0,1.2482968E1,1.7199111E0,2.3966787E0,2.9823643E1,3.4228706E0,1.3817887E3,6.8136525E0,1.1595961E0,2.2792323E2,5.6870036E0,1.1559387E0],"tree_param":{"num_deleted":"0","num_feature":"12","num_nodes":"35","size_leaf_vector":"1"}},{"base_weights":[-1.973306E-3,4.5182317E-1,-4.509253E-2,9.468429E-1,-9.198069E-1,1.472566E0,8.20852E-1,-1.4410187E0,1.2019821E0,7.408315E-1,4.45418E-2,7.1385586E-1,1.5287117E0,4.171387E-2,-1.472471E0,-1.1129016E0,1.4784702E0,-1.9233108E-2,1.1491526E0,4.65913E-2,6.587134E-1,-2.7478123E-2,1.5458285E0,-2.0733061E-1,-1.4815181E0,3.1177392E-2,-4.327106E-2,1.2591742E-2,4.4523142E-2,3.1291656E-2,-4.032558E-2,3.8106557E-2,1.0194293E-2,2.1600496E-2,-3.1072583E-2,1.3215399E-2,4.6488512E-2,-3.4313E-2,2.6196737E-2,-4.459971E-2,-2.412987E-2],"categories":[],"categories_nodes":[],"categories_segments":[],"categories_sizes":[],"default_left":[0,0,0,0,0,0,0,0,0,0,0,0,0,0,0,0,0,0,0,0,0,0,0,0,0,0,0,0,0,0,0,0,0,0,0,0,0,0,0,0,0],"id":14,"left_children":[1,3,-1,5,7,9,11,13,15,17,-1,19,21,-1,23,25,27,29,31,-1,33,-1,35,37,39,-1,-1,-1,-1,-1,-1,-1,-1,-1,-1,-1,-1,-1,-1,-1,-1],"loss_changes":[2.5116614E3,1.9232267E3,0E0,1.3662244E2,8.3262225E2,2.4685059E0,1.2621521E2,5.5803345E1,9.6825226E1,2.6760883E0,0E0,6.663269E1,1.0614807E1,0E0,6.53125E0,1.3153986E1,1.7211914E-1,6.9927173E0,1.15067005E-1,0E0,1.4343335E2,0E0,2.3309326E-1,6.467824E0,8.6816406E-1,0E0,0E0,0E0,0E0,0E0,0E0,0E0,0E0,0E0,0E0,0E0,0E0,0E0,0E0,0E0,0E0],"parents":[2147483647,0,0,1,1,3,3,4,4,5,5,6,6,7,7,8,8,9,9,11,11,12,12,14,14,15,15,16,16,17,17,18,18,20,20,22,22,23,23,24,24],"right_children":[2,4,-1,6,8,10,12,14,16,18,-1,20,22,-1,24,26,28,30,32,-1,34,-1,36,38,40,-1,-1,-1,-1,-1,-1,-1,-1,-1,-1,-1,-1,-1,-1,-1,-1],"split_conditions":[7E0,4.02E2,-4.509253E-2,3.1E1,1.04623E1,9E0,5.3236E3,6E0,5.24239E3,6E0,4.45418E-2,1.417E1,2.8393E0,4.171387E-2,4.06E2,3E0,5.47932E3,3E0,1.92493E3,4.65913E-2,2.2E1,-2.7478123E-2,3.7667E0,2.61E0,8.2431E0,3.1177392E-2,-4.327106E-2,1.2591742E-2,4.4523142E-2,3.1291656E-2,-4.032558E-2,3.8106557E-2,1.0194293E-2,2.1600496E-2,-3.1072583E-2,1.3215399E-2,4.6488512E-2,-3.4313E-2,2.6196737E-2,-4.459971E-2,-2.412987E-2],"split_indices":[7,3,0,3,9,5,0,1,0,6,0,0,9,0,3,1,0,7,0,0,5,0,9,9,9,0,0,0,0,0,0,0,0,0,0,0,0,0,0,0,0],"split_type":[0,0,0,0,0,0,0,0,0,0,0,0,0,0,0,0,0,0,0,0,0,0,0,0,0,0,0,0,0,0,0,0,0,0,0,0,0,0,0,0,0],"sum_hessian":[3.6851218E3,2.830224E3,8.548977E2,2.0799001E3,7.503239E2,4.0002505E2,1.6798751E3,6.026142E2,1.4770972E2,7.551582E0,3.9247348E2,1.4610408E3,2.1883434E2,6.1456695E0,5.964685E2,1.5437218E1,1.322725E2,2.972099E0,4.579483E0,8.840976E1,1.3726311E3,1.1564546E0,2.1767789E2,4.404898E0,5.9206366E2,1.7634797E0,1.3673738E1,1.0998387E0,1.3117267E2,1.7676425E0,1.2044566E0,3.4882467E0,1.0912364E0,1.3252603E3,4.7370808E1,1.1441784E0,2.165337E2,2.32848E0,2.0764182E0,5.864182E2,5.645455E0],"tree_param":{"num_deleted":"0","num_feature":"12","num_nodes":"41","size_leaf_vector":"1"}},{"base_weights":[1.2144226E-3,4.4831765E-1,-4.442689E-2,8.076696E-1,-1.4543588E0,9.6265197E-1,-1.7873909E-1,3.3631667E-2,-4.4025466E-2,1.1257564E0,3.9803424E-1,-1.3689146E0,1.4347906E0,1.4487001E0,1.0025283E0,5.894907E-1,-1.459713E0,-4.3856747E-2,-1.1010753E0,-6.057127E-3,4.3836426E-2,6.586116E-3,4.377189E-2,3.1025128E-2,-5.47563E-2,1.8940035E-2,-2.1021986E-2,-7.663299E-3,-4.5519862E-2,-4.022111E-2,4.3763965E-3],"categories":[],"categories_nodes":[],"categories_segments":[],"categories_sizes":[],"default_left":[0,0,0,0,0,0,0,0,0,0,0,0,0,0,0,0,0,0,0,0,0,0,0,0,0,0,0,0,0,0,0],"id":15,"left_children":[1,3,-1,5,7,9,11,-1,-1,13,15,17,19,21,23,25,27,-1,29,-1,-1,-1,-1,-1,-1,-1,-1,-1,-1,-1,-1],"loss_changes":[2.402084E3,1.9052521E3,0E0,3.5837146E2,1.664801E1,1.8604468E2,6.1455615E2,0E0,0E0,6.1052612E1,1.6284593E2,2.9747925E0,6.172394E0,5.176697E0,1.03900635E2,2.2771255E1,2.584732E0,0E0,1.5581001E1,0E0,0E0,0E0,0E0,0E0,0E0,0E0,0E0,0E0,0E0,0E0,0E0],"parents":[2147483647,0,0,1,1,3,3,4,4,5,5,6,6,9,9,10,10,11,11,12,12,13,13,14,14,15,15,16,16,18,18],"right_children":[2,4,-1,6,8,10,12,-1,-1,14,16,18,20,22,24,26,28,-1,30,-1,-1,-1,-1,-1,-1,-1,-1,-1,-1,-1,-1],"split_conditions":[7E0,2.14104E3,-4.442689E-2,4.02E2,1.98E2,1.06164E3,5.24239E3,3.3631667E-2,-4.4025466E-2,3.7E1,2.03E2,4.0391E0,8.2431E0,8E0,1.8E1,1.7E1,1.08658E3,-4.3856747E-2,1.6E1,-6.057127E-3,4.3836426E-2,6.586116E-3,4.377189E-2,3.1025128E-2,-5.47563E-2,1.8940035E-2,-2.1021986E-2,-7.663299E-3,-4.5519862E-2,-4.022111E-2,4.3763965E-3],"split_indices":[7,8,0,3,3,8,0,0,0,3,3,9,9,5,6,5,8,0,5,0,0,0,0,0,0,0,0,0,0,0,0],"split_type":[0,0,0,0,0,0,0,0,0,0,0,0,0,0,0,0,0,0,0,0,0,0,0,0,0,0,0,0,0,0,0],"sum_hessian":[3.6229287E3,2.7838362E3,8.3909265E2,2.3420725E3,4.4176367E2,2.0240779E3,3.1799463E2,1.8173451E0,4.3994635E2,1.5696501E3,4.5442764E2,1.8309285E2,1.3490176E2,4.3055048E2,1.1390997E3,4.1258954E2,4.1838127E1,1.3260323E2,5.048963E1,2.0377986E0,1.3286397E2,3.7850575E0,4.267654E2,1.1271213E3,1.1978337E1,4.001236E2,1.2465927E1,2.1583517E0,3.9679775E1,4.2287937E1,8.201692E0],"tree_param":{"num_deleted":"0","num_feature":"12","num_nodes":"31","size_leaf_vector":"1"}},{"base_weights":[3.631939E-3,4.414734E-1,-4.3806955E-2,7.912712E-1,-1.4341425E0,1.010925E0,1.00417875E-1,3.309701E-2,-4.3418866E-2,5.3008145E-1,1.1920866E0,5.933546E-1,-1.3665067E0,8.0036515E-1,-7.282409E-1,9.742441E-1,1.430474E0,6.3561654E-1,-7.134496E-1,-1.4224793E0,3.5101783E-2,3.5970923E-2,1.4318185E-2,4.178418E-2,-3.8919654E-2,2.3307748E-2,4.4206865E-2,3.9017767E-2,4.3900467E-2,-4.4425625E-2,1.9486131E-2,-3.9332576E-2,2.1227194E-2,-4.378173E-2,2.935297E-2],"categories":[],"categories_nodes":[],"categories_segments":[],"categories_sizes":[],"default_left":[0,0,0,0,0,0,0,0,0,0,0,0,0,0,0,0,0,0,0,0,0,0,0,0,0,0,0,0,0,0,0,0,0,0,0],"id":16,"left_children":[1,3,-1,5,7,9,11,-1,-1,13,15,17,19,21,23,25,27,29,31,33,-1,-1,-1,-1,-1,-1,-1,-1,-1,-1,-1,-1,-1,-1,-1],"loss_changes":[2.29921E3,1.8128027E3,0E0,3.5315918E2,1.6094238E1,1.5322449E2,4.077064E2,0E0,0E0,1.6558055E2,6.5186646E1,2.37529E1,2.1801636E1,5.092874E1,1.0598045E2,6.516705E1,7.0166016E-1,1.3018143E1,1.2551607E1,1.3766052E1,0E0,0E0,0E0,0E0,0E0,0E0,0E0,0E0,0E0,0E0,0E0,0E0,0E0,0E0,0E0],"parents":[2147483647,0,0,1,1,3,3,4,4,5,5,6,6,9,9,10,10,11,11,12,12,13,13,14,14,15,15,16,16,17,17,18,18,19,19],"right_children":[2,4,-1,6,8,10,12,-1,-1,14,16,18,20,22,24,26,28,30,32,34,-1,-1,-1,-1,-1,-1,-1,-1,-1,-1,-1,-1,-1,-1,-1],"split_conditions":[7E0,2.14104E3,-4.3806955E-2,1.03433E3,1.98E2,1E0,2.03E2,3.309701E-2,-4.3418866E-2,4.1E2,1.4E1,1.7E1,3E0,1.12E2,6E0,3E0,1.6E1,2E0,6.552E-1,4.4848E0,3.5101783E-2,3.5970923E-2,1.4318185E-2,4.178418E-2,-3.8919654E-2,2.3307748E-2,4.4206865E-2,3.9017767E-2,4.3900467E-2,-4.4425625E-2,1.9486131E-2,-3.9332576E-2,2.1227194E-2,-4.378173E-2,2.935297E-2],"split_indices":[7,8,0,8,3,4,3,0,0,3,5,5,4,3,1,4,5,5,10,9,0,0,0,0,0,0,0,0,0,0,0,0,0,0,0],"split_type":[0,0,0,0,0,0,0,0,0,0,0,0,0,0,0,0,0,0,0,0,0,0,0,0,0,0,0,0,0,0,0,0,0,0,0],"sum_hessian":[3.5852395E3,2.7603252E3,8.2491437E2,2.3269353E3,4.333897E2,1.7652262E3,5.6170917E2,1.807602E0,4.315821E2,4.8413895E2,1.2810873E3,4.20876E2,1.4083319E2,3.988345E2,8.530445E1,6.720465E2,6.090407E2,4.081888E2,1.2687197E1,1.3822234E2,2.6108441E0,1.7732321E2,2.215113E2,1.7739456E1,6.7564995E1,4.835246E2,1.8852191E2,1.3121187E2,4.7782883E2,1.9787648E0,4.0621005E2,8.985536E0,3.7016618E0,1.3651569E2,1.7066543E0],"tree_param":{"num_deleted":"0","num_feature":"12","num_nodes":"35","size_leaf_vector":"1"}},{"base_weights":[-8.351746E-3,4.209866E-1,-4.3204557E-2,7.657249E-1,-1.4216889E0,9.6782833E-1,1.2747963E-1,-9.125499E-1,-4.283397E-2,8.441056E-1,1.4652071E0,9.3278646E-1,-5.6071583E-2,-3.6743067E-2,1.0852217E-2,5.405511E-1,1.0634404E0,1.1228615E-2,4.4022568E-2,1.0152863E0,1.463171E-1,2.7609563E-2,-1.2961484E0,2.5350673E-2,5.96308E-3,4.2225413E-2,2.7699225E-2,3.8170878E-2,2.2254415E-2,-3.976234E-2,1.4030039E-2,-1.1275944E-2,9.955413E-3,-4.498793E-2,3.2928314E-2],"categories":[],"categories_nodes":[],"categories_segments":[],"categories_sizes":[],"default_left":[0,0,0,0,0,0,0,0,0,0,0,0,0,0,0,0,0,0,0,0,0,0,0,0,0,0,0,0,0,0,0,0,0,0,0],"id":17,"left_children":[1,3,-1,5,7,9,11,13,-1,15,17,19,21,-1,-1,23,25,-1,-1,27,29,31,33,-1,-1,-1,-1,-1,-1,-1,-1,-1,-1,-1,-1],"loss_changes":[2.1688179E3,1.7252805E3,0E0,2.948954E2,2.8869629E-2,1.0564795E2,8.152829E1,3.565402E0,0E0,9.219E1,2.8234863E-1,6.493599E0,4.6715298E1,0E0,0E0,6.086174E1,3.7649963E1,0E0,0E0,5.558014E0,5.7689624E0,5.1972107E1,1.550473E1,0E0,0E0,0E0,0E0,0E0,0E0,0E0,0E0,0E0,0E0,0E0,0E0],"parents":[2147483647,0,0,1,1,3,3,4,4,5,5,6,6,7,7,9,9,10,10,11,11,12,12,15,15,16,16,19,19,20,20,21,21,22,22],"right_children":[2,4,-1,6,8,10,12,14,-1,16,18,20,22,-1,-1,24,26,-1,-1,28,30,32,34,-1,-1,-1,-1,-1,-1,-1,-1,-1,-1,-1,-1],"split_conditions":[7E0,2.14104E3,-4.3204557E-2,1.06164E3,2.2656E3,5.24239E3,6E0,1E0,-4.283397E-2,1.2E1,5.5902E0,1.88028E3,1.7E1,-3.6743067E-2,1.0852217E-2,1.82336E3,1.8527E2,1.1228615E-2,4.4022568E-2,6E0,4.167E-1,6E0,2.8E1,2.5350673E-2,5.96308E-3,4.2225413E-2,2.7699225E-2,3.8170878E-2,2.2254415E-2,-3.976234E-2,1.4030039E-2,-1.1275944E-2,9.955413E-3,-4.498793E-2,3.2928314E-2],"split_indices":[7,8,0,8,8,0,1,7,0,5,9,8,5,0,0,0,8,0,0,6,10,6,6,0,0,0,0,0,0,0,0,0,0,0,0],"split_type":[0,0,0,0,0,0,0,0,0,0,0,0,0,0,0,0,0,0,0,0,0,0,0,0,0,0,0,0,0,0,0,0,0,0,0],"sum_hessian":[3.5261147E3,2.7132332E3,8.128817E2,2.2861174E3,4.2711557E2,1.7359153E3,5.502022E2,6.847913E0,4.2026767E2,1.3922827E3,3.4363263E2,1.01370514E2,4.4883173E2,5.5314837E0,1.3164293E0,5.8547003E2,8.068127E2,1.0397141E0,3.4259293E2,9.148309E1,9.88742E0,4.2137482E2,2.7456896E1,3.0885693E2,2.7661307E2,2.3088025E2,5.7593243E2,4.5272404E1,4.621069E1,1.2120328E0,8.675387E0,1.8104317E2,2.4033165E2,2.565037E1,1.8065271E0],"tree_param":{"num_deleted":"0","num_feature":"12","num_nodes":"35","size_leaf_vector":"1"}},{"base_weights":[1.2541144E-2,4.318833E-1,-4.2641334E-2,7.646979E-1,-1.3969363E0,9.685553E-1,7.8710124E-2,-4.2108044E-2,1.2055292E-2,8.539854E-1,1.4477952E0,8.351308E-1,-1.0015096E-1,-1.1322682E-2,9.27286E-1,1.1072627E-2,4.3499433E-2,1.099693E0,5.899257E-1,-2.3758288E-2,-4.2965524E-2,1.375246E-2,-2.0885069E-2,-6.7729475E-3,2.8856322E-2,3.5225656E-2,1.1517545E-2,2.7490536E-2,1.00462735E-2,-1.8428236E-2,4.9822773E-3],"categories":[],"categories_nodes":[],"categories_segments":[],"categories_sizes":[],"default_left":[0,0,0,0,0,0,0,0,0,0,0,0,0,0,0,0,0,0,0,0,0,0,0,0,0,0,0,0,0,0,0],"id":18,"left_children":[1,3,-1,5,7,9,11,-1,-1,13,15,17,19,21,23,-1,-1,25,27,29,-1,-1,-1,-1,-1,-1,-1,-1,-1,-1,-1],"loss_changes":[2.132E3,1.6708191E3,0E0,3.2458533E2,5.6323853E0,9.7026855E1,7.218893E1,0E0,0E0,9.177722E1,2.7563477E-1,5.9699936E0,4.3917526E1,3.698476E1,5.341736E1,0E0,0E0,2.10437E0,4.281147E0,4.6008575E1,0E0,0E0,0E0,0E0,0E0,0E0,0E0,0E0,0E0,0E0,0E0],"parents":[2147483647,0,0,1,1,3,3,4,4,5,5,6,6,9,9,10,10,11,11,12,12,13,13,14,14,17,17,18,18,19,19],"right_children":[2,4,-1,6,8,10,12,-1,-1,14,16,18,20,22,24,-1,-1,26,28,30,-1,-1,-1,-1,-1,-1,-1,-1,-1,-1,-1],"split_conditions":[7E0,2.14104E3,-4.2641334E-2,1.08658E3,4E0,5.24239E3,6E0,-4.2108044E-2,1.2055292E-2,3E0,5.5902E0,6E0,1.8E1,1.98951E3,4E0,1.1072627E-2,4.3499433E-2,6E0,2E0,1E0,-4.2965524E-2,1.375246E-2,-2.0885069E-2,-6.7729475E-3,2.8856322E-2,3.5225656E-2,1.1517545E-2,2.7490536E-2,1.00462735E-2,-1.8428236E-2,4.9822773E-3],"split_indices":[7,8,0,8,7,0,1,0,0,6,9,6,5,0,5,0,0,7,1,7,0,0,0,0,0,0,0,0,0,0,0],"split_type":[0,0,0,0,0,0,0,0,0,0,0,0,0,0,0,0,0,0,0,0,0,0,0,0,0,0,0,0,0,0,0],"sum_hessian":[3.5436147E3,2.7423325E3,8.0128217E2,2.3206033E3,4.217292E2,1.7886516E3,5.319517E2,4.2039114E2,1.3380405E0,1.4457937E3,3.428579E2,1.0102751E2,4.3092422E2,1.12975174E2,1.3328185E3,1.0368621E0,3.4182104E2,4.6919407E1,5.4108105E1,4.0851364E2,2.2410595E1,6.7207794E1,4.5767384E1,3.865886E1,1.2941597E3,4.1916428E1,5.0029798E0,2.2595913E1,3.1512194E1,9.8834335E1,3.096793E2],"tree_param":{"num_deleted":"0","num_feature":"12","num_nodes":"31","size_leaf_vector":"1"}},{"base_weights":[-6.984743E-3,3.9968047E-1,-4.2117964E-2,7.565703E-1,-1.2357682E0,2.2285257E-1,9.931422E-1,-3.448858E-1,-4.1788884E-2,1.1577157E0,-4.083204E-3,7.9584086E-1,4.2521324E-2,-1.5102925E0,-8.868915E-2,1.2541357E0,6.895564E-1,2.4531661E-1,-5.1194423E-1,-2.734108E-1,8.834887E-1,-5.185848E-2,1.2779674E-2,-1.051363E0,3.319987E-1,3.114905E-3,3.803403E-2,-3.0013107E-2,2.9101782E-2,4.0913075E-2,4.051726E-3,-3.3893865E-2,-7.1246247E-3,-3.9807923E-2,2.6113081E-3,2.2097213E-2,4.183794E-2,-3.7438475E-2,-1.2651476E-4,-1.3814778E-2,1.7351437E-2],"categories":[],"categories_nodes":[],"categories_segments":[],"categories_sizes":[],"default_left":[0,0,0,0,0,0,0,0,0,0,0,0,0,0,0,0,0,0,0,0,0,0,0,0,0,0,0,0,0,0,0,0,0,0,0,0,0,0,0,0,0],"id":19,"left_children":[1,3,-1,5,7,9,11,13,-1,15,17,19,-1,21,23,25,27,29,31,33,35,-1,-1,37,39,-1,-1,-1,-1,-1,-1,-1,-1,-1,-1,-1,-1,-1,-1,-1,-1],"loss_changes":[1.9684143E3,1.5673591E3,0E0,2.7801196E2,6.689636E1,1.4385844E2,1.2664722E2,2.1807934E1,0E0,5.1140137E0,6.935978E1,9.810498E1,0E0,6.308691E0,2.5177687E1,1.5756073E0,1.2746579E1,4.5106728E1,3.0313908E1,3.0448132E1,7.1461365E1,0E0,0E0,3.8820782E0,8.745054E0,0E0,0E0,0E0,0E0,0E0,0E0,0E0,0E0,0E0,0E0,0E0,0E0,0E0,0E0,0E0,0E0],"parents":[2147483647,0,0,1,1,3,3,4,4,5,5,6,6,7,7,9,9,10,10,11,11,13,13,14,14,15,15,16,16,17,17,18,18,19,19,20,20,23,23,24,24],"right_children":[2,4,-1,6,8,10,12,14,-1,16,18,20,-1,22,24,26,28,30,32,34,36,-1,-1,38,40,-1,-1,-1,-1,-1,-1,-1,-1,-1,-1,-1,-1,-1,-1,-1,-1],"split_conditions":[7E0,1.86678E3,-4.2117964E-2,1E0,2.2656E3,6E0,3E0,4E0,-4.1788884E-2,1.29345E3,9.958E2,5E0,4.2521324E-2,1.5E1,1E0,4E0,1.44153E3,6.029E1,1E0,3E0,1.6E1,-5.185848E-2,1.2779674E-2,2E0,9E0,3.114905E-3,3.803403E-2,-3.0013107E-2,2.9101782E-2,4.0913075E-2,4.051726E-3,-3.3893865E-2,-7.1246247E-3,-3.9807923E-2,2.6113081E-3,2.2097213E-2,4.183794E-2,-3.7438475E-2,-1.2651476E-4,-1.3814778E-2,1.7351437E-2],"split_indices":[7,8,0,4,8,1,4,6,0,8,8,5,0,5,7,5,8,8,7,5,5,0,0,4,1,0,0,0,0,0,0,0,0,0,0,0,0,0,0,0,0],"split_type":[0,0,0,0,0,0,0,0,0,0,0,0,0,0,0,0,0,0,0,0,0,0,0,0,0,0,0,0,0,0,0,0,0,0,0,0,0,0,0,0,0],"sum_hessian":[3.4629814E3,2.682727E3,7.8025446E2,2.2026084E3,4.801187E2,6.770632E2,1.5255452E3,7.248908E1,4.076296E2,1.3145053E2,5.456126E2,1.0432373E3,4.8230786E2,1.2181572E1,6.030751E1,1.0760897E2,2.3841557E1,3.662647E2,1.793479E2,7.887612E1,9.6436115E2,1.1043611E1,1.1379621E0,1.7883942E1,4.242357E1,1.3642925E0,1.06244675E2,3.0285234E0,2.0813034E1,3.184677E1,3.3441794E2,5.420538E1,1.25142525E2,1.942381E1,5.9452312E1,7.509475E2,2.1341365E2,1.4895726E1,2.9882164E0,9.8552065E0,3.256836E1],"tree_param":{"num_deleted":"0","num_feature":"12","num_nodes":"41","size_leaf_vector":"1"}},{"base_weights":[2.5700692E-3,4.037551E-1,-4.161406E-2,8.4504235E-1,-8.8160044E-1,1.0274009E0,2.3231365E-1,-1.3419385E0,1.1118264E0,8.826333E-1,4.202805E-2,5.185142E-1,-4.355109E-2,3.8770128E-2,-1.3790462E0,-1.0691695E0,4.1254107E-2,1.2368582E0,7.504468E-1,5.537154E-1,-4.17985E-2,-1.1515743E-1,-4.1644584E-2,2.8744878E-2,-4.2402536E-2,1.4825708E-2,3.9075103E-2,2.5061565E-2,-4.3701116E-2,-2.149244E-2,1.7664334E-2,-3.343336E-2,3.22288E-2],"categories":[],"categories_nodes":[],"categories_segments":[],"categories_sizes":[],"default_left":[0,0,0,0,0,0,0,0,0,0,0,0,0,0,0,0,0,0,0,0,0,0,0,0,0,0,0,0,0,0,0,0,0],"id":20,"left_children":[1,3,-1,5,7,9,11,13,15,17,-1,19,-1,-1,21,23,-1,25,27,29,-1,31,-1,-1,-1,-1,-1,-1,-1,-1,-1,-1,-1],"loss_changes":[1.9112675E3,1.5096143E3,0E0,2.2108813E2,6.25824E2,8.1293335E1,2.2033704E2,5.5855957E1,7.5084564E1,5.070038E1,0E0,2.7027977E1,0E0,0E0,6.1241455E0,1.1384064E1,0E0,1.3889587E1,1.5222833E2,1.7530922E1,0E0,7.135729E0,0E0,0E0,0E0,0E0,0E0,0E0,0E0,0E0,0E0,0E0,0E0],"parents":[2147483647,0,0,1,1,3,3,4,4,5,5,6,6,7,7,8,8,9,9,11,11,14,14,15,15,17,17,18,18,19,19,21,21],"right_children":[2,4,-1,6,8,10,12,14,16,18,-1,20,-1,-1,22,24,-1,26,28,30,-1,32,-1,-1,-1,-1,-1,-1,-1,-1,-1,-1,-1],"split_conditions":[7E0,4.02E2,-4.161406E-2,1.09576E3,1.24178E1,3E0,2.03E2,6E0,5.47932E3,5.9E1,4.202805E-2,1.8E1,-4.355109E-2,3.8770128E-2,4.06E2,3E0,4.1254107E-2,8E0,2.2E1,4E0,-4.17985E-2,1E0,-4.1644584E-2,2.8744878E-2,-4.2402536E-2,1.4825708E-2,3.9075103E-2,2.5061565E-2,-4.3701116E-2,-2.149244E-2,1.7664334E-2,-3.343336E-2,3.22288E-2],"split_indices":[7,3,0,8,9,4,3,1,0,3,0,5,0,0,3,1,0,5,5,5,0,4,0,0,0,0,0,0,0,0,0,0,0],"split_type":[0,0,0,0,0,0,0,0,0,0,0,0,0,0,0,0,0,0,0,0,0,0,0,0,0,0,0,0,0,0,0,0,0],"sum_hessian":[3.4260996E3,2.659155E3,7.669447E2,1.9797957E3,6.793593E2,1.525195E3,4.5460065E2,5.5217377E2,1.2718555E2,1.1016145E3,4.2358044E2,3.8915536E2,6.5445305E1,7.20027E0,5.449735E2,1.3371249E1,1.1381429E2,2.9710223E2,8.045123E2,3.8281705E2,6.3382936E0,3.9961872E0,5.4097736E2,1.68205E0,1.1689199E1,2.482102E1,2.7228122E2,7.752977E2,2.9214596E1,9.77143E0,3.7304562E2,2.2059615E0,1.7902256E0],"tree_param":{"num_deleted":"0","num_feature":"12","num_nodes":"33","size_leaf_vector":"1"}},{"base_weights":[-1.2426463E-2,3.7965143E-1,-4.1138437E-2,6.9508654E-1,-1.3479676E0,9.1054773E-1,1.1708531E-2,-1.3547603E0,1.2052784E-2,7.9318494E-1,4.1972466E-2,7.174798E-1,-1.4828947E-1,-8.676818E-1,-4.0830933E-2,-2.906561E-2,8.6231166E-1,9.6610755E-1,5.056656E-1,-4.8682454E-1,9.127991E-2,-3.541762E-2,1.7031485E-2,1.3847791E-2,-2.3923865E-2,4.0010896E-2,2.3016851E-2,1.7174473E-2,3.4422148E-2,2.4155036E-2,-7.648423E-5,-2.075392E-2,-1.6986692E-3,7.334144E-3,-3.6751546E-2],"categories":[],"categories_nodes":[],"categories_segments":[],"categories_sizes":[],"default_left":[0,0,0,0,0,0,0,0,0,0,0,0,0,0,0,0,0,0,0,0,0,0,0,0,0,0,0,0,0,0,0,0,0,0,0],"id":21,"left_children":[1,3,-1,5,7,9,11,13,-1,15,-1,17,19,21,-1,23,25,27,29,31,33,-1,-1,-1,-1,-1,-1,-1,-1,-1,-1,-1,-1,-1,-1],"loss_changes":[1.7962117E3,1.4268003E3,0E0,3.2586157E2,5.3495483E0,9.536633E1,6.0128548E1,4.9865723E-2,0E0,7.727142E1,0E0,4.6935806E0,3.5253918E1,4.209893E0,0E0,4.04682E1,5.5166992E1,2.495163E0,8.409113E0,1.5838966E1,5.1734432E1,0E0,0E0,0E0,0E0,0E0,0E0,0E0,0E0,0E0,0E0,0E0,0E0,0E0,0E0],"parents":[2147483647,0,0,1,1,3,3,4,4,5,5,6,6,7,7,9,9,11,11,12,12,13,13,15,15,16,16,17,17,18,18,19,19,20,20],"right_children":[2,4,-1,6,8,10,12,14,-1,16,-1,18,20,22,-1,24,26,28,30,32,34,-1,-1,-1,-1,-1,-1,-1,-1,-1,-1,-1,-1,-1,-1],"split_conditions":[7E0,2.14104E3,-4.1138437E-2,1.06164E3,4E0,5.24239E3,6E0,2.2656E3,1.2052784E-2,3E0,4.1972466E-2,6E0,6E0,1E0,-4.0830933E-2,2.04153E3,1.1202E2,2.8E-1,1.1E1,1.1E1,1.7E1,-3.541762E-2,1.7031485E-2,1.3847791E-2,-2.3923865E-2,4.0010896E-2,2.3016851E-2,1.7174473E-2,3.4422148E-2,2.4155036E-2,-7.648423E-5,-2.075392E-2,-1.6986692E-3,7.334144E-3,-3.6751546E-2],"split_indices":[7,8,0,8,7,0,1,8,0,6,0,6,6,7,0,0,8,10,5,5,5,0,0,0,0,0,0,0,0,0,0,0,0,0,0],"split_type":[0,0,0,0,0,0,0,0,0,0,0,0,0,0,0,0,0,0,0,0,0,0,0,0,0,0,0,0,0,0,0,0,0,0,0],"sum_hessian":[3.3694373E3,2.6154946E3,7.539425E2,2.2121836E3,4.0331104E2,1.6816472E3,5.305364E2,4.0197626E2,1.3347738E0,1.3580261E3,3.23621E2,9.7401566E1,4.3313486E2,6.8808875E0,3.9509537E2,1.0536055E2,1.2526656E3,4.316884E1,5.4232727E1,1.7906555E2,2.540693E2,5.795116E0,1.0857713E0,6.4544815E1,4.0815735E1,2.0807681E2,1.0445889E3,1.4924054E1,2.8244781E1,3.375554E1,2.0477186E1,1.2086873E2,5.8196815E1,2.2831303E2,2.5756256E1],"tree_param":{"num_deleted":"0","num_feature":"12","num_nodes":"35","size_leaf_vector":"1"}},{"base_weights":[4.3576607E-3,3.9163634E-1,-4.0688213E-2,8.1618655E-1,-8.7107766E-1,1.0014727E0,2.1474478E-1,-1.31025E0,1.1539204E0,8.603014E-1,4.118132E-2,4.805204E-1,-4.328882E-2,-1.3425691E0,3.7309658E-2,-4.0503915E-2,4.032232E-2,1.3141415E0,7.643552E-1,5.1164657E-1,-4.0199496E-2,-4.0852223E-2,-7.7296E-1,1.7710004E-2,4.0565863E-2,2.4326548E-2,-5.5731338E-2,-4.7381394E-2,1.5782693E-2,-4.138634E-2,2.5846215E-2],"categories":[],"categories_nodes":[],"categories_segments":[],"categories_sizes":[],"default_left":[0,0,0,0,0,0,0,0,0,0,0,0,0,0,0,0,0,0,0,0,0,0,0,0,0,0,0,0,0,0,0],"id":22,"left_children":[1,3,-1,5,7,9,11,13,15,17,-1,19,-1,21,-1,-1,-1,23,25,27,-1,-1,29,-1,-1,-1,-1,-1,-1,-1,-1],"loss_changes":[1.7666029E3,1.3997468E3,0E0,2.1748975E2,5.859255E2,7.707556E1,2.0396297E2,4.628192E1,5.7835236E1,4.621936E1,0E0,2.3259415E1,0E0,4.781311E0,0E0,0E0,0E0,4.376465E0,1.1102106E2,1.2681755E1,0E0,0E0,2.0728304E1,0E0,0E0,0E0,0E0,0E0,0E0,0E0,0E0],"parents":[2147483647,0,0,1,1,3,3,4,4,5,5,6,6,7,7,8,8,9,9,11,11,13,13,17,17,18,18,19,19,22,22],"right_children":[2,4,-1,6,8,10,12,14,16,18,-1,20,-1,22,-1,-1,-1,24,26,28,-1,-1,30,-1,-1,-1,-1,-1,-1,-1,-1],"split_conditions":[7E0,4.02E2,-4.0688213E-2,1.09576E3,1.46309E1,3E0,2E2,3E0,5.47932E3,3.5E1,4.118132E-2,1.8E1,-4.328882E-2,6.613E0,3.7309658E-2,-4.0503915E-2,4.032232E-2,6E0,1.8E1,2.718E2,-4.0199496E-2,-4.0852223E-2,6.0688E2,1.7710004E-2,4.0565863E-2,2.4326548E-2,-5.5731338E-2,-4.7381394E-2,1.5782693E-2,-4.138634E-2,2.5846215E-2],"split_indices":[7,3,0,8,9,4,3,4,0,3,0,5,0,9,0,0,0,6,6,0,0,0,8,0,0,0,0,0,0,0,0],"split_type":[0,0,0,0,0,0,0,0,0,0,0,0,0,0,0,0,0,0,0,0,0,0,0,0,0,0,0,0,0,0,0],"sum_hessian":[3.350539E3,2.6087256E3,7.418135E2,1.9525814E3,6.561441E2,1.4922108E3,4.603706E2,5.39494E2,1.16650055E2,1.0835024E3,4.0870837E2,3.9737122E2,6.299937E1,5.332206E2,6.2734666E0,7.802607E0,1.0884744E2,1.8687215E2,8.966303E2,3.9139822E2,5.972997E0,5.145126E2,1.8708017E1,1.015883E1,1.7671332E2,8.816753E2,1.4954988E1,1.9416616E0,3.8945657E2,1.3758165E1,4.9498525E0],"tree_param":{"num_deleted":"0","num_feature":"12","num_nodes":"31","size_leaf_vector":"1"}},{"base_weights":[-2.2660099E-2,3.5341638E-1,-4.02555E-2,6.5257275E-1,-1.3256106E0,4.621297E-1,4.0696863E-2,1.759918E-2,-3.9978694E-2,6.368064E-1,-6.517154E-1,8.0513406E-1,3.0838755E-1,-4.0934037E-2,3.9758407E-2,3.8922377E-2,2.0921266E-2,1.3967343E-2,-2.947862E-2],"categories":[],"categories_nodes":[],"categories_segments":[],"categories_sizes":[],"default_left":[0,0,0,0,0,0,0,0,0,0,0,0,0,0,0,0,0,0,0],"id":23,"left_children":[1,3,-1,5,7,9,-1,-1,-1,11,13,15,17,-1,-1,-1,-1,-1,-1],"loss_changes":[1.6330029E3,1.2874453E3,0E0,2.909392E2,5.98053E0,3.3374088E2,0E0,0E0,0E0,8.16499E1,3.297677E2,5.101953E1,1.0266112E2,0E0,0E0,0E0,0E0,0E0,0E0],"parents":[2147483647,0,0,1,1,3,3,4,4,5,5,9,9,10,10,11,11,12,12],"right_children":[2,4,-1,6,8,10,-1,-1,-1,12,14,16,18,-1,-1,-1,-1,-1,-1],"split_conditions":[7E0,2.14104E3,-4.02555E-2,3E0,2.06E2,4.06E2,4.0696863E-2,1.759918E-2,-3.9978694E-2,9.7355E2,5.47932E3,3.5E1,2.03E2,-4.0934037E-2,3.9758407E-2,3.8922377E-2,2.0921266E-2,1.3967343E-2,-2.947862E-2],"split_indices":[7,8,0,4,3,3,0,0,0,8,0,3,3,0,0,0,0,0,0],"split_type":[0,0,0,0,0,0,0,0,0,0,0,0,0,0,0,0,0,0,0],"sum_hessian":[3.289617E3,2.560421E3,7.291962E2,2.173733E3,3.86688E2,1.7122042E3,4.6152863E2,1.1108608E0,3.8557712E2,1.4804618E3,2.3174245E2,9.778325E2,5.026292E2,1.7056108E2,6.1181377E1,1.7362288E2,8.0420966E2,4.4864276E2,5.398647E1],"tree_param":{"num_deleted":"0","num_feature":"12","num_nodes":"19","size_leaf_vector":"1"}},{"base_weights":[-9.148641E-3,3.679436E-1,-3.985962E-2,7.732812E-1,-8.4632367E-1,9.544265E-1,2.7748287E-1,3.9705325E-2,-1.2429407E0,7.983554E-1,4.024733E-2,5.134327E-1,-1.1729385E0,-1.330233E0,8.504755E-1,1.2867078E0,6.966541E-1,5.5087274E-1,-5.6630564E-1,-1.3582615E0,9.7794455E-1,-3.303454E-1,-1.3346484E0,-3.3204116E-2,1.1976135E0,9.734396E-3,3.9563786E-2,2.2288764E-2,-5.5363126E-2,-4.5046005E-2,1.6998926E-2,3.497265E-2,-4.735859E-2,-4.297129E-2,2.8393043E-2,4.139865E-3,3.4897737E-2,-2.8069152E-2,1.6939256E-2,-4.0238686E-2,-1.7754657E-2,1.0839571E-2,3.801139E-2],"categories":[],"categories_nodes":[],"categories_segments":[],"categories_sizes":[],"default_left":[0,0,0,0,0,0,0,0,0,0,0,0,0,0,0,0,0,0,0,0,0,0,0,0,0,0,0,0,0,0,0,0,0,0,0,0,0,0,0,0,0,0,0],"id":24,"left_children":[1,3,-1,5,7,9,11,-1,13,15,-1,17,19,21,23,25,27,29,31,33,35,37,39,-1,41,-1,-1,-1,-1,-1,-1,-1,-1,-1,-1,-1,-1,-1,-1,-1,-1,-1,-1],"loss_changes":[1.6115848E3,1.2404817E3,0E0,1.6939832E2,5.4460095E2,8.250525E1,1.7408382E2,0E0,9.8700195E1,4.818628E1,0E0,1.7965363E1,2.9721382E1,1.8236084E0,1.6261536E1,4.7944336E0,9.790585E1,1.45173645E1,2.8365398E1,1.2629059E1,8.094888E-1,2.4698944E0,1.723999E0,0E0,6.542473E-1,0E0,0E0,0E0,0E0,0E0,0E0,0E0,0E0,0E0,0E0,0E0,0E0,0E0,0E0,0E0,0E0,0E0,0E0],"parents":[2147483647,0,0,1,1,3,3,4,4,5,5,6,6,8,8,9,9,11,11,12,12,13,13,14,14,15,15,16,16,17,17,18,18,19,19,20,20,21,21,22,22,24,24],"right_children":[2,4,-1,6,8,10,12,-1,14,16,-1,18,20,22,24,26,28,30,32,34,36,38,40,-1,42,-1,-1,-1,-1,-1,-1,-1,-1,-1,-1,-1,-1,-1,-1,-1,-1,-1,-1],"split_conditions":[7E0,4.02E2,-3.985962E-2,1.0084E3,6E0,3E0,2.03E2,3.9705325E-2,2.34111E1,3.5E1,4.024733E-2,1.7E1,3.89E0,4.06E2,2.3E1,5E0,1.7E1,2E0,3.2E1,3E0,3E0,2.0142E0,1.66065E1,-3.3204116E-2,1.0198E2,9.734396E-3,3.9563786E-2,2.2288764E-2,-5.5363126E-2,-4.5046005E-2,1.6998926E-2,3.497265E-2,-4.735859E-2,-4.297129E-2,2.8393043E-2,4.139865E-3,3.4897737E-2,-2.8069152E-2,1.6939256E-2,-4.0238686E-2,-1.7754657E-2,1.0839571E-2,3.801139E-2],"split_indices":[7,3,0,8,1,4,3,0,9,3,0,5,9,3,1,6,6,5,3,4,7,9,9,0,8,0,0,0,0,0,0,0,0,0,0,0,0,0,0,0,0,0,0],"split_type":[0,0,0,0,0,0,0,0,0,0,0,0,0,0,0,0,0,0,0,0,0,0,0,0,0,0,0,0,0,0,0,0,0,0,0,0,0,0,0,0,0,0,0],"sum_hessian":[3.236894E3,2.5180105E3,7.188835E2,1.8881017E3,6.299088E2,1.3821815E3,5.059202E2,9.698436E1,5.3292444E2,9.872545E2,3.9492703E2,4.3568964E2,7.023055E1,5.119418E2,2.0982637E1,1.6815428E2,8.191002E2,4.2156174E2,1.4127907E1,6.499869E1,5.2318664E0,2.584065E0,5.0935773E2,2.8311722E0,1.8151464E1,5.7847214E0,1.6236957E2,8.0514215E2,1.3958108E1,2.493642E0,4.1906808E2,5.1554327E0,8.972474E0,6.3340275E1,1.6584128E0,1.260988E0,3.9708784E0,1.5144197E0,1.0696452E0,5.040457E2,5.312039E0,1.8670743E0,1.628439E1],"tree_param":{"num_deleted":"0","num_feature":"12","num_nodes":"43","size_leaf_vector":"1"}},{"base_weights":[1.4706174E-2,3.815773E-1,-3.946477E-2,7.723863E-1,-8.245277E-1,9.517591E-1,2.3899065E-1,-1.2763343E0,1.0766487E0,1.2850837E0,8.4125394E-1,4.7908726E-1,-1.3458924E0,-3.9504066E-2,-6.900174E-1,-9.65972E-1,3.914882E-2,-7.140444E-2,1.2999741E0,8.754618E-1,-5.6738347E-2,5.1426864E-1,-1.1165435E0,-4.2004034E-1,-4.1231718E-2,-1.0361495E0,6.2200075E-1,-4.009353E-2,2.2414962E-2,-1.7438387E-2,1.1651884E-2,7.1890703E-3,3.9237123E-2,2.2791196E-2,4.0949985E-2,-4.275483E-2,1.585298E-2,-4.153186E-2,1.4762249E-2,-3.1630483E-2,1.3681812E-2,-4.0526994E-2,-1.0324905E-2,-5.4702E-3,2.77221E-2],"categories":[],"categories_nodes":[],"categories_segments":[],"categories_sizes":[],"default_left":[0,0,0,0,0,0,0,0,0,0,0,0,0,0,0,0,0,0,0,0,0,0,0,0,0,0,0,0,0,0,0,0,0,0,0,0,0,0,0,0,0,0,0,0,0],"id":25,"left_children":[1,3,-1,5,7,9,11,13,15,17,19,21,23,-1,25,27,-1,29,31,33,-1,35,37,39,-1,41,43,-1,-1,-1,-1,-1,-1,-1,-1,-1,-1,-1,-1,-1,-1,-1,-1,-1,-1],"loss_changes":[1.5728776E3,1.1914015E3,0E0,1.8237378E2,5.3283826E2,5.151416E1,1.8391615E2,1.0963989E1,5.6918518E1,7.2355957E0,1.0216589E2,2.4095467E1,1.1014862E0,0E0,1.6270037E1,8.978635E0,0E0,1.3481746E0,2.6281128E0,5.9180298E1,0E0,1.2033661E1,4.7117805E0,2.3370004E0,0E0,5.5464764E0,2.0654125E0,0E0,0E0,0E0,0E0,0E0,0E0,0E0,0E0,0E0,0E0,0E0,0E0,0E0,0E0,0E0,0E0,0E0,0E0],"parents":[2147483647,0,0,1,1,3,3,4,4,5,5,6,6,7,7,8,8,9,9,10,10,11,11,12,12,14,14,15,15,17,17,18,18,19,19,21,21,22,22,23,23,25,25,26,26],"right_children":[2,4,-1,6,8,10,12,14,16,18,20,22,24,-1,26,28,-1,30,32,34,-1,36,38,40,-1,42,44,-1,-1,-1,-1,-1,-1,-1,-1,-1,-1,-1,-1,-1,-1,-1,-1,-1,-1],"split_conditions":[7E0,4.02E2,-3.946477E-2,1.06164E3,1.18362E1,3.7E1,2.03E2,4.755E0,5.47932E3,8E0,3.1E1,1.8E1,1.08658E3,-3.9504066E-2,4.85335E3,1.5E1,3.914882E-2,3.7667E0,4E0,5.24239E3,-5.6738347E-2,2E0,3.9E1,5.135E-1,-4.1231718E-2,5.4679E2,6.8074E0,-4.009353E-2,2.2414962E-2,-1.7438387E-2,1.1651884E-2,7.1890703E-3,3.9237123E-2,2.2791196E-2,4.0949985E-2,-4.275483E-2,1.585298E-2,-4.153186E-2,1.4762249E-2,-3.1630483E-2,1.3681812E-2,-4.0526994E-2,-1.0324905E-2,-5.4702E-3,2.77221E-2],"split_indices":[7,3,0,8,9,3,3,9,0,5,5,5,8,0,0,5,0,9,6,0,0,5,5,10,0,8,9,0,0,0,0,0,0,0,0,0,0,0,0,0,0,0,0,0,0],"split_type":[0,0,0,0,0,0,0,0,0,0,0,0,0,0,0,0,0,0,0,0,0,0,0,0,0,0,0,0,0,0,0,0,0,0,0,0,0,0,0,0,0,0,0,0,0],"sum_hessian":[3.2210054E3,2.52525E3,6.957554E2,1.9075232E3,6.177268E2,1.4268955E3,4.806276E2,4.9937994E2,1.183469E2,3.526236E2,1.074272E3,4.1800156E2,6.2626045E1,4.6597238E2,3.3407543E1,1.157337E1,1.0677353E2,3.7875938E0,3.48836E2,1.0616609E3,1.2611051E1,4.0964713E2,8.354429E0,2.3400955E0,6.028595E1,2.6600225E1,6.8073173E0,9.696343E0,1.8770273E0,1.6707225E0,2.1168714E0,2.8212323E0,3.4601477E2,8.6069446E2,2.0096646E2,2.2477906E0,4.0739932E2,7.2813907E0,1.0730388E0,1.2393396E0,1.1007559E0,1.7629313E1,8.970913E0,1.9667304E0,4.8405867E0],"tree_param":{"num_deleted":"0","num_feature":"12","num_nodes":"45","size_leaf_vector":"1"}},{"base_weights":[1.0933708E-2,3.723401E-1,-3.9096262E-2,7.5656945E-1,-8.2750314E-1,6.0900956E-1,3.9568104E-2,-1.2644938E0,1.0767934E0,1.2685019E0,5.2874804E-1,3.7115168E-2,-3.926098E-2,-1.105866E0,3.8763575E-2,3.754141E-1,3.909263E-2,4.5320973E-1,1.369324E0,-3.911908E-2,7.22754E-3,-1.3497353E-2,3.402248E-2,1.753132E-2,2.2632295E-4,4.175988E-2,-7.184688E-4],"categories":[],"categories_nodes":[],"categories_segments":[],"categories_sizes":[],"default_left":[0,0,0,0,0,0,0,0,0,0,0,0,0,0,0,0,0,0,0,0,0,0,0,0,0,0,0],"id":26,"left_children":[1,3,-1,5,7,9,-1,11,13,15,17,-1,-1,19,-1,21,-1,23,25,-1,-1,-1,-1,-1,-1,-1,-1],"loss_changes":[1.5066833E3,1.1476697E3,0E0,1.556278E2,5.0397122E2,7.846973E1,0E0,5.5996155E1,5.466414E1,4.499359E0,8.412286E1,0E0,0E0,3.1715794E0,0E0,5.1599755E0,0E0,7.166846E1,3.493927E0,0E0,0E0,0E0,0E0,0E0,0E0,0E0,0E0],"parents":[2147483647,0,0,1,1,3,3,4,4,5,5,7,7,8,8,9,9,10,10,13,13,15,15,17,17,18,18],"right_children":[2,4,-1,6,8,10,-1,12,14,16,18,-1,-1,20,-1,22,-1,24,26,-1,-1,-1,-1,-1,-1,-1,-1],"split_conditions":[7E0,4.06E2,-3.9096262E-2,3E0,1.46309E1,3.1E1,3.9568104E-2,6E0,5.47932E3,9E0,5.47932E3,3.7115168E-2,-3.926098E-2,1.4E1,3.8763575E-2,8E0,3.909263E-2,2.03E2,2.2E1,-3.911908E-2,7.22754E-3,-1.3497353E-2,3.402248E-2,1.753132E-2,2.2632295E-4,4.175988E-2,-7.184688E-4],"split_indices":[7,3,0,4,9,3,0,1,0,5,0,0,0,5,0,6,0,3,5,0,0,0,0,0,0,0,0],"split_type":[0,0,0,0,0,0,0,0,0,0,0,0,0,0,0,0,0,0,0,0,0,0,0,0,0,0,0],"sum_hessian":[3.1703474E3,2.4870835E3,6.8326385E2,1.8841016E3,6.0298193E2,1.4941372E3,3.8996442E2,4.9071133E2,1.1227059E2,1.6050404E2,1.333633E3,8.051928E0,4.8265942E2,9.709907E0,1.02560684E2,6.4259324E0,1.5407811E2,1.2250804E3,1.0855263E2,8.492503E0,1.2174034E0,3.2726817E0,3.1532505E0,9.4626575E2,2.7881476E2,1.0681539E2,1.7372339E0],"tree_param":{"num_deleted":"0","num_feature":"12","num_nodes":"27","size_leaf_vector":"1"}},{"base_weights":[-3.439411E-3,3.5179892E-1,-3.8745057E-2,6.3041735E-1,-1.269878E0,7.612458E-1,-2.2809258E-1,3.0941319E-2,-3.8522895E-2,9.1940844E-1,3.1460294E-1,-1.159837E0,1.0585592E0,1.2012811E0,7.625118E-1,4.7151083E-1,-1.1884148E0,3.7531726E-2,-1.3082036E0,3.8349E-2,4.3840128E-1,1.4419189E-2,3.7267E-2,2.5047878E-2,-6.0723387E-2,-4.791573E-2,1.4567477E-2,-4.128746E-2,2.8176347E-2,-1.744291E-2,-4.02594E-2,-3.8505457E-2,3.4167018E-2],"categories":[],"categories_nodes":[],"categories_segments":[],"categories_sizes":[],"default_left":[0,0,0,0,0,0,0,0,0,0,0,0,0,0,0,0,0,0,0,0,0,0,0,0,0,0,0,0,0,0,0,0,0],"id":27,"left_children":[1,3,-1,5,7,9,11,-1,-1,13,15,17,19,21,23,25,27,-1,29,-1,31,-1,-1,-1,-1,-1,-1,-1,-1,-1,-1,-1,-1],"loss_changes":[1.4263136E3,1.1047614E3,0E0,2.3443964E2,1.3056946E1,1.2758472E2,3.328066E2,0E0,0E0,5.8180176E1,1.1255759E2,5.9187912E1,1.5341537E1,1.3453247E1,1.7547607E2,1.3313972E1,1.9346165E1,0E0,2.952362E0,0E0,4.0122402E1,0E0,0E0,0E0,0E0,0E0,0E0,0E0,0E0,0E0,0E0,0E0,0E0],"parents":[2147483647,0,0,1,1,3,3,4,4,5,5,6,6,9,9,10,10,11,11,12,12,13,13,14,14,15,15,16,16,18,18,20,20],"right_children":[2,4,-1,6,8,10,12,-1,-1,14,16,18,20,22,24,26,28,-1,30,-1,32,-1,-1,-1,-1,-1,-1,-1,-1,-1,-1,-1,-1],"split_conditions":[7E0,2.14104E3,-3.8745057E-2,4.02E2,1.98E2,1.0084E3,1.24178E1,3.0941319E-2,-3.8522895E-2,6.3E1,2.03E2,6E0,6E0,8E0,2.3E1,1.414E-1,3.89E0,3.7531726E-2,4.17E2,3.8349E-2,2.3E1,1.4419189E-2,3.7267E-2,2.5047878E-2,-6.0723387E-2,-4.791573E-2,1.4567477E-2,-4.128746E-2,2.8176347E-2,-1.744291E-2,-4.02594E-2,-3.8505457E-2,3.4167018E-2],"split_indices":[7,8,0,3,3,8,9,0,0,3,3,1,1,5,5,9,9,0,3,0,1,0,0,0,0,0,0,0,0,0,0,0,0],"split_type":[0,0,0,0,0,0,0,0,0,0,0,0,0,0,0,0,0,0,0,0,0,0,0,0,0,0,0,0,0,0,0,0,0],"sum_hessian":[3.1151611E3,2.4423152E3,6.72846E2,2.0847483E3,3.5756693E2,1.809163E3,2.755852E2,1.7564161E0,3.5581052E2,1.3352671E3,4.738959E2,1.5989435E2,1.15690865E2,4.7508926E2,8.6017786E2,4.2972134E2,4.417457E1,8.8385935E0,1.5105576E2,8.463932E1,3.105154E1,2.6231295E1,4.4885797E2,8.3907275E2,2.1105053E1,2.1432033E0,4.2757812E2,4.091556E1,3.2590063E0,7.5173845E0,1.4353838E2,8.738618E0,2.2312923E1],"tree_param":{"num_deleted":"0","num_feature":"12","num_nodes":"33","size_leaf_vector":"1"}},{"base_weights":[-6.0277884E-3,3.3902568E-1,-3.841253E-2,6.154313E-1,-1.2043147E0,7.908367E-1,3.4238476E-2,2.659287E-1,-3.8239416E-2,1.1730572E0,6.213803E-1,4.0301576E-1,-1.2914851E0,-5.938259E-1,1.0156527E0,4.543562E-1,1.2207167E0,7.038006E-1,-1.7570012E0,4.3764287E-1,-3.9873086E-2,3.1113291E-2,-4.0260468E-2,-1.4153503E0,5.693891E-1,3.986459E-2,3.645787E-1,3.9203353E-2,3.1211397E-3,-1.626987E-2,3.7034135E-2,1.3917059E-2,3.918674E-2,-5.8225542E-2,-3.7651088E-2,-4.4906676E-2,1.3692566E-2,1.1248695E-2,-5.881421E-2,-3.4708688E-3,3.043381E-2,-6.1049033E-3,2.1936614E-2],"categories":[],"categories_nodes":[],"categories_segments":[],"categories_sizes":[],"default_left":[0,0,0,0,0,0,0,0,0,0,0,0,0,0,0,0,0,0,0,0,0,0,0,0,0,0,0,0,0,0,0,0,0,0,0,0,0,0,0,0,0,0,0],"id":28,"left_children":[1,3,-1,5,7,9,11,13,-1,15,17,19,21,23,25,27,29,31,33,35,-1,-1,-1,37,39,-1,41,-1,-1,-1,-1,-1,-1,-1,-1,-1,-1,-1,-1,-1,-1,-1,-1],"loss_changes":[1.3455898E3,1.0279805E3,0E0,2.0823877E2,3.8195923E1,1.0091211E2,2.3258397E2,1.1909747E1,0E0,1.59175415E1,2.147821E2,2.290121E1,1.3574936E1,9.217169E0,1.5012951E0,9.270475E0,1.1591675E1,1.5166046E2,9.577637E-1,1.3962303E1,0E0,0E0,0E0,6.0496216E0,1.4457003E0,0E0,1.0946376E0,0E0,0E0,0E0,0E0,0E0,0E0,0E0,0E0,0E0,0E0,0E0,0E0,0E0,0E0,0E0,0E0],"parents":[2147483647,0,0,1,1,3,3,4,4,5,5,6,6,7,7,9,9,10,10,11,11,12,12,13,13,14,14,15,15,16,16,17,17,18,18,19,19,23,23,24,24,26,26],"right_children":[2,4,-1,6,8,10,12,14,-1,16,18,20,22,24,26,28,30,32,34,36,-1,-1,-1,38,40,-1,42,-1,-1,-1,-1,-1,-1,-1,-1,-1,-1,-1,-1,-1,-1,-1,-1],"split_conditions":[7E0,2.00136E3,-3.841253E-2,1.08658E3,1.98E2,6.3E1,2E2,2.08631E3,-3.8239416E-2,8E0,2.3E1,1.8E1,1E0,5E0,8E0,2.0446E0,2E0,5.24239E3,4.06E2,2E0,-3.9873086E-2,3.1113291E-2,-4.0260468E-2,4.0759E2,7E0,3.986459E-2,1.03E2,3.9203353E-2,3.1211397E-3,-1.626987E-2,3.7034135E-2,1.3917059E-2,3.918674E-2,-5.8225542E-2,-3.7651088E-2,-4.4906676E-2,1.3692566E-2,1.1248695E-2,-5.881421E-2,-3.4708688E-3,3.043381E-2,-6.1049033E-3,2.1936614E-2],"split_indices":[7,8,0,8,3,3,3,8,0,5,5,5,1,7,5,9,6,0,3,5,0,0,0,0,6,0,3,0,0,0,0,0,0,0,0,0,0,0,0,0,0,0,0],"split_type":[0,0,0,0,0,0,0,0,0,0,0,0,0,0,0,0,0,0,0,0,0,0,0,0,0,0,0,0,0,0,0,0,0,0,0,0,0,0,0,0,0,0,0],"sum_hessian":[3.0580308E3,2.4070364E3,6.509945E2,2.0419357E3,3.6510068E2,1.568268E3,4.736677E2,1.6541113E1,3.4855957E2,4.7989948E2,1.0883684E3,3.7112708E2,1.0254063E2,7.8020096E0,8.739104E0,3.0499773E1,4.4939972E2,1.052596E3,3.577252E1,3.645859E2,6.541172E0,1.7631898E0,1.00777435E2,4.445561E0,3.356449E0,5.197931E0,3.5411732E0,8.088333E0,2.241144E1,3.1813848E0,4.4621832E2,7.540761E2,2.985198E2,2.4084713E1,1.1687806E1,2.7478244E0,3.6183807E2,1.1105217E0,3.3350391E0,1.6132591E0,1.7431898E0,1.5635608E0,1.9776125E0],"tree_param":{"num_deleted":"0","num_feature":"12","num_nodes":"43","size_leaf_vector":"1"}},{"base_weights":[-5.072215E-3,3.3477017E-1,-3.80922E-2,5.9525585E-1,-1.248105E0,8.0901496E-2,8.328562E-1,-1.2555164E0,1.6696837E-2,8.907136E-1,-8.490828E-2,6.457134E-1,3.8603384E-2,-7.570324E-1,-3.7868332E-2,1.0503992E0,2.689182E-1,1.6544633E-1,-5.148149E-1,-4.1696775E-1,7.317416E-1,1.1622391E-2,-3.1841792E-2,2.215213E-2,3.5462555E-2,-5.066122E-2,1.4651393E-2,2.4275247E-3,3.9549235E-2,-1.1858756E-2,-4.1146256E-2,-3.807175E-2,-1.9490918E-3,1.7763369E-2,3.7671734E-2],"categories":[],"categories_nodes":[],"categories_segments":[],"categories_sizes":[],"default_left":[0,0,0,0,0,0,0,0,0,0,0,0,0,0,0,0,0,0,0,0,0,0,0,0,0,0,0,0,0,0,0,0,0,0,0],"id":29,"left_children":[1,3,-1,5,7,9,11,13,-1,15,17,19,-1,21,-1,23,25,27,29,31,33,-1,-1,-1,-1,-1,-1,-1,-1,-1,-1,-1,-1,-1,-1],"loss_changes":[1.296888E3,9.813954E2,0E0,2.4960718E2,5.198303E0,8.690348E1,1.1787103E2,1.7468262E-1,0E0,1.0638229E1,5.7952744E1,9.09422E1,0E0,2.8445797E0,0E0,2.708458E0,1.1057649E1,3.3079117E1,1.9744606E1,2.2378544E1,6.6387054E1,0E0,0E0,0E0,0E0,0E0,0E0,0E0,0E0,0E0,0E0,0E0,0E0,0E0,0E0],"parents":[2147483647,0,0,1,1,3,3,4,4,5,5,6,6,7,7,9,9,10,10,11,11,13,13,15,15,16,16,17,17,18,18,19,19,20,20],"right_children":[2,4,-1,6,8,10,12,14,-1,16,18,20,-1,22,-1,24,26,28,30,32,34,-1,-1,-1,-1,-1,-1,-1,-1,-1,-1,-1,-1,-1,-1],"split_conditions":[7E0,2.14104E3,-3.80922E-2,1E0,2E0,6E0,3E0,2.2656E3,1.6696837E-2,1.29345E3,9.7355E2,5E0,3.8603384E-2,7.3925E2,-3.7868332E-2,1.1E1,1.37481E3,5.47932E3,1.8E1,3E0,1.6E1,1.1622391E-2,-3.1841792E-2,2.215213E-2,3.5462555E-2,-5.066122E-2,1.4651393E-2,2.4275247E-3,3.9549235E-2,-1.1858756E-2,-4.1146256E-2,-3.807175E-2,-1.9490918E-3,1.7763369E-2,3.7671734E-2],"split_indices":[7,8,0,4,4,1,4,8,0,8,8,5,0,0,0,5,8,0,5,5,5,0,0,0,0,0,0,0,0,0,0,0,0,0,0],"split_type":[0,0,0,0,0,0,0,0,0,0,0,0,0,0,0,0,0,0,0,0,0,0,0,0,0,0,0,0,0,0,0,0,0,0,0],"sum_hessian":[3.015519E3,2.3773982E3,6.381208E2,2.0419835E3,3.3541483E2,6.456432E2,1.3963403E3,3.3434604E2,1.0687907E0,1.0898592E2,5.366572E2,9.9042993E2,4.0591037E2,5.985966E0,3.2836008E2,8.6167595E1,2.281833E1,3.3954156E2,1.9711566E2,7.388639E1,9.165435E2,1.2001889E0,4.785777E0,2.7535902E1,5.863169E1,1.6253377E0,2.1192993E1,3.1734384E2,2.2197742E1,1.7426512E2,2.2850548E1,2.0838003E1,5.304839E1,7.253773E2,1.9116621E2],"tree_param":{"num_deleted":"0","num_feature":"12","num_nodes":"35","size_leaf_vector":"1"}},{"base_weights":[-7.318142E-3,3.278412E-1,-3.7785493E-2,6.798668E-1,-8.106241E-1,8.4069943E-1,1.2384206E-1,3.76976E-2,-1.1870886E0,6.9066656E-1,3.831598E-2,3.5043445E-1,-3.959776E-2,-1.2541E0,3.5372775E-2,-1.194036E0,7.1896684E-1,3.7592286E-1,-3.6848284E-2,-3.8286425E-2,-4.6204203E-1,6.4434973E-3,-5.692425E-2,3.7516896E-2,1.8931769E-2,-4.2364705E-2,1.1790743E-2,-3.8650565E-2,3.160539E-2],"categories":[],"categories_nodes":[],"categories_segments":[],"categories_sizes":[],"default_left":[0,0,0,0,0,0,0,0,0,0,0,0,0,0,0,0,0,0,0,0,0,0,0,0,0,0,0,0,0],"id":30,"left_children":[1,3,-1,5,7,9,11,-1,13,15,-1,17,-1,19,-1,21,23,25,-1,-1,27,-1,-1,-1,-1,-1,-1,-1,-1],"loss_changes":[1.2546005E3,9.456483E2,0E0,1.6102441E2,4.3529395E2,9.063086E1,1.3309393E2,0E0,7.632904E1,5.6441833E1,0E0,1.4594093E1,0E0,7.459656E0,0E0,1.6058065E1,4.721869E1,1.1147682E1,0E0,0E0,1.8951723E1,0E0,0E0,0E0,0E0,0E0,0E0,0E0,0E0],"parents":[2147483647,0,0,1,1,3,3,4,4,5,5,6,6,8,8,9,9,11,11,13,13,15,15,16,16,17,17,20,20],"right_children":[2,4,-1,6,8,10,12,-1,14,16,-1,18,-1,20,-1,22,24,26,-1,-1,28,-1,-1,-1,-1,-1,-1,-1,-1],"split_conditions":[7E0,4.06E2,-3.7785493E-2,1.14635E3,6E0,3E0,2.03E2,3.76976E-2,1.743483E4,3E0,3.831598E-2,1.8E1,-3.959776E-2,1.46309E1,3.5372775E-2,1E1,3.1E1,2E0,-3.6848284E-2,-3.8286425E-2,5.47932E3,6.4434973E-3,-5.692425E-2,3.7516896E-2,1.8931769E-2,-4.2364705E-2,1.1790743E-2,-3.8650565E-2,3.160539E-2],"split_indices":[7,3,0,8,1,4,3,0,0,5,0,5,0,9,0,1,3,5,0,0,0,0,0,0,0,0,0,0,0],"split_type":[0,0,0,0,0,0,0,0,0,0,0,0,0,0,0,0,0,0,0,0,0,0,0,0,0,0,0,0,0],"sum_hessian":[2.9873953E3,2.3572102E3,6.3018506E2,1.8007897E3,5.5642053E2,1.3963711E3,4.0441864E2,8.536014E1,4.7106036E2,1.0411064E3,3.5526465E2,3.5021185E2,5.4206795E1,4.5854416E2,1.2516195E1,1.479236E1,1.0263141E3,3.4539728E2,4.814589E0,4.454947E2,1.3049481E1,5.157598E0,9.634762E0,1.4375749E2,8.825566E2,2.4994118E0,3.4289786E2,8.542085E0,4.5073967E0],"tree_param":{"num_deleted":"0","num_feature":"12","num_nodes":"29","size_leaf_vector":"1"}},{"base_weights":[-2.9784425E-3,3.2872108E-1,-3.749897E-2,6.806801E-1,-8.071065E-1,8.3817667E-1,1.4643079E-1,3.7421864E-2,-1.1858852E0,6.9611335E-1,3.800085E-2,3.5949174E-1,-3.914552E-2,-1.2546315E0,3.5026666E-2,1.2403888E0,6.072482E-1,3.842713E-1,-3.6365923E-2,-2.5674102E-3,-1.2577132E0,2.1586254E-2,3.7914474E-2,1.5289183E-2,3.979027E-2,-2.5507122E-2,1.2308428E-2,-3.8043775E-2,-2.8988345E-2],"categories":[],"categories_nodes":[],"categories_segments":[],"categories_sizes":[],"default_left":[0,0,0,0,0,0,0,0,0,0,0,0,0,0,0,0,0,0,0,0,0,0,0,0,0,0,0,0,0],"id":31,"left_children":[1,3,-1,5,7,9,11,-1,13,15,-1,17,-1,19,-1,21,23,25,-1,-1,27,-1,-1,-1,-1,-1,-1,-1,-1],"loss_changes":[1.2209164E3,9.3262445E2,0E0,1.496958E2,4.3106528E2,8.281958E1,1.2619554E2,0E0,7.695703E1,4.9298187E1,0E0,1.4304634E1,0E0,1.5274048E0,0E0,8.511505E-1,6.190094E1,1.1605675E1,0E0,0E0,1.4813232E-1,0E0,0E0,0E0,0E0,0E0,0E0,0E0,0E0],"parents":[2147483647,0,0,1,1,3,3,4,4,5,5,6,6,8,8,9,9,11,11,13,13,15,15,16,16,17,17,20,20],"right_children":[2,4,-1,6,8,10,12,-1,14,16,-1,18,-1,20,-1,22,24,26,-1,-1,28,-1,-1,-1,-1,-1,-1,-1,-1],"split_conditions":[7E0,4.02E2,-3.749897E-2,1.14635E3,6E0,3E0,2.03E2,3.7421864E-2,1.743483E4,3.1E1,3.800085E-2,1.8E1,-3.914552E-2,9.104E1,3.5026666E-2,6E0,5.3236E3,1.16875E3,-3.6365923E-2,-2.5674102E-3,2.3E1,2.1586254E-2,3.7914474E-2,1.5289183E-2,3.979027E-2,-2.5507122E-2,1.2308428E-2,-3.8043775E-2,-2.8988345E-2],"split_indices":[7,3,0,8,1,4,3,0,0,3,0,5,0,8,0,6,0,8,0,0,1,0,0,0,0,0,0,0,0],"split_type":[0,0,0,0,0,0,0,0,0,0,0,0,0,0,0,0,0,0,0,0,0,0,0,0,0,0,0,0,0],"sum_hessian":[2.949753E3,2.330559E3,6.1919403E2,1.779535E3,5.51024E2,1.3739315E3,4.0560352E2,8.5418655E1,4.6560535E2,1.0338214E3,3.401101E2,3.5433612E2,5.126738E1,4.5284424E2,1.2761116E1,1.4328444E2,8.905369E2,3.495801E2,4.7560406E0,1.2662333E0,4.51578E2,7.5324154E0,1.3575203E2,7.8560834E2,1.0492855E2,6.5593934E0,3.430207E2,4.3276437E2,1.8813623E1],"tree_param":{"num_deleted":"0","num_feature":"12","num_nodes":"29","size_leaf_vector":"1"}},{"base_weights":[-4.2637074E-3,3.1674653E-1,-3.7220933E-2,5.591275E-1,-1.2187144E0,7.550277E-1,3.5991568E-2,2.9410547E-2,-3.7016015E-2,6.403992E-1,3.7841182E-2,3.642099E-1,-1.1479733E0,7.7081656E-1,-1.1734048E0,4.020034E-1,-6.946464E-1,-1.2368313E0,3.2031987E-2,3.368585E-2,1.6332943E-2,3.457069E-2,-3.989723E-2,1.9857464E-2,8.509512E-3,3.012509E-2,-3.7463762E-2,-9.564073E-3,-3.8624045E-2],"categories":[],"categories_nodes":[],"categories_segments":[],"categories_sizes":[],"default_left":[0,0,0,0,0,0,0,0,0,0,0,0,0,0,0,0,0,0,0,0,0,0,0,0,0,0,0,0,0],"id":32,"left_children":[1,3,-1,5,7,9,11,-1,-1,13,-1,15,17,19,21,23,25,27,-1,-1,-1,-1,-1,-1,-1,-1,-1,-1,-1],"loss_changes":[1.1508601E3,8.573848E2,0E0,2.0378864E2,1.1677582E1,8.31723E1,2.1138536E2,0E0,0E0,2.8047006E2,0E0,1.7319553E1,2.4567627E1,8.730847E1,3.0532753E1,1.2479027E1,1.5413831E1,4.8883057E0,0E0,0E0,0E0,0E0,0E0,0E0,0E0,0E0,0E0,0E0,0E0],"parents":[2147483647,0,0,1,1,3,3,4,4,5,5,6,6,9,9,11,11,12,12,13,13,14,14,15,15,16,16,17,17],"right_children":[2,4,-1,6,8,10,12,-1,-1,14,-1,16,18,20,22,24,26,28,-1,-1,-1,-1,-1,-1,-1,-1,-1,-1,-1],"split_conditions":[7E0,2.14104E3,-3.7220933E-2,1.0084E3,1.98E2,5.24239E3,2.03E2,2.9410547E-2,-3.7016015E-2,4.06E2,3.7841182E-2,1.7E1,5.47932E3,6.3E1,6E0,1.28025E3,3.2E1,1.04236E3,3.2031987E-2,3.368585E-2,1.6332943E-2,3.457069E-2,-3.989723E-2,1.9857464E-2,8.509512E-3,3.012509E-2,-3.7463762E-2,-9.564073E-3,-3.8624045E-2],"split_indices":[7,8,0,8,3,0,3,0,0,3,0,5,0,3,1,8,3,8,0,0,0,0,0,0,0,0,0,0,0],"split_type":[0,0,0,0,0,0,0,0,0,0,0,0,0,0,0,0,0,0,0,0,0,0,0,0,0,0,0,0,0],"sum_hessian":[2.8975742E3,2.3009355E3,5.9663855E2,1.9877881E3,3.131475E2,1.4458961E3,5.4189197E2,1.707081E0,3.1144043E2,1.180838E3,2.6505814E2,4.248168E2,1.1707518E2,1.1021644E3,7.867353E1,4.1077542E2,1.4041381E1,1.12985825E2,4.0893598E0,4.2981348E2,6.72351E2,4.5590553E0,7.411447E1,1.27088E2,2.8368744E2,3.2539153E0,1.0787465E1,6.2877097E0,1.0669811E2],"tree_param":{"num_deleted":"0","num_feature":"12","num_nodes":"29","size_leaf_vector":"1"}},{"base_weights":[-1.2668272E-3,3.178719E-1,-3.694848E-2,5.715252E-1,-1.1304438E0,4.0593123E-1,3.744241E-2,-1.19241E0,2.3567498E-1,3.146212E-1,3.8512368E-2,-4.271176E-1,-1.2093536E0,-8.941863E-1,6.378001E-1,3.8476773E-2,2.5053036E-1,4.6547818E-1,-1.1293778E0,-1.2166564E0,-6.063189E-1,-4.1036833E-2,3.0952206E-4,8.442919E-1,-2.9174149E-2,-1.303648E-3,1.3575495E-2,-7.245268E-3,3.0123645E-2,1.6602863E-2,-5.0494775E-2,-2.5396934E-2,-3.6943316E-2,4.2278753E-3,-4.1356806E-2,1.3090871E-2,3.5742883E-2,-9.106887E-3,1.0223132E-2],"categories":[],"categories_nodes":[],"categories_segments":[],"categories_sizes":[],"default_left":[0,0,0,0,0,0,0,0,0,0,0,0,0,0,0,0,0,0,0,0,0,0,0,0,0,0,0,0,0,0,0,0,0,0,0,0,0,0,0],"id":33,"left_children":[1,3,-1,5,7,9,-1,11,13,15,-1,17,19,21,23,-1,25,27,29,31,33,-1,-1,35,37,-1,-1,-1,-1,-1,-1,-1,-1,-1,-1,-1,-1,-1,-1],"loss_changes":[1.1197568E3,8.325256E2,0E0,2.154494E2,2.887799E1,1.2383824E2,0E0,3.6758423E0,7.609524E0,8.686003E1,0E0,5.884672E0,6.5301514E-1,1.9349642E0,1.6787105E0,0E0,7.836128E1,1.9457402E0,5.6624656E0,6.5945435E-1,3.5248985E0,0E0,0E0,7.834916E-1,4.89771E-1,0E0,0E0,0E0,0E0,0E0,0E0,0E0,0E0,0E0,0E0,0E0,0E0,0E0,0E0],"parents":[2147483647,0,0,1,1,3,3,4,4,5,5,7,7,8,8,9,9,11,11,12,12,13,13,14,14,16,16,17,17,18,18,19,19,20,20,23,23,24,24],"right_children":[2,4,-1,6,8,10,-1,12,14,16,-1,18,20,22,24,-1,26,28,30,32,34,-1,-1,36,38,-1,-1,-1,-1,-1,-1,-1,-1,-1,-1,-1,-1,-1,-1],"split_conditions":[7E0,1.95615E3,-3.694848E-2,3E0,4E0,5.47932E3,3.744241E-2,2.00136E3,4.375E-1,4.942E1,3.8512368E-2,4.474E-1,1E0,2.84364E3,1E1,3.8476773E-2,1E0,2.49361E3,1.24302E3,7.3925E2,2E0,-4.1036833E-2,3.0952206E-4,2.99239E3,2.09385E3,-1.303648E-3,1.3575495E-2,-7.245268E-3,3.0123645E-2,1.6602863E-2,-5.0494775E-2,-2.5396934E-2,-3.6943316E-2,4.2278753E-3,-4.1356806E-2,1.3090871E-2,3.5742883E-2,-9.106887E-3,1.0223132E-2],"split_indices":[7,8,0,4,7,0,0,8,10,8,0,10,4,0,5,0,4,0,0,0,7,0,0,0,0,0,0,0,0,0,0,0,0,0,0,0,0,0,0],"split_type":[0,0,0,0,0,0,0,0,0,0,0,0,0,0,0,0,0,0,0,0,0,0,0,0,0,0,0,0,0,0,0,0,0,0,0,0,0,0,0],"sum_hessian":[2.8497817E3,2.2634182E3,5.863635E2,1.9266042E3,3.368138E2,1.5490565E3,3.7754782E2,3.2232074E2,1.4493078E1,1.4043362E3,1.4472029E2,7.54926E0,3.1477148E2,3.4830396E0,1.1010038E1,8.603113E1,1.318305E3,3.472619E0,4.076641E0,3.0999973E2,4.7717447E0,1.9496506E0,1.5333889E0,8.204205E0,2.8058338E0,5.372041E2,7.8110095E2,1.7401931E0,1.7324258E0,1.0095378E0,3.0671031E0,1.4148485E1,2.9585126E2,2.8405929E0,1.931152E0,4.80949E0,3.394714E0,1.7139981E0,1.0918359E0],"tree_param":{"num_deleted":"0","num_feature":"12","num_nodes":"39","size_leaf_vector":"1"}},{"base_weights":[4.1604294E-3,3.1146583E-1,-3.668913E-2,6.408526E-1,-7.8454864E-1,4.9963376E-1,3.720914E-2,-1.1962227E0,1.0032463E0,1.1902491E0,4.2138737E-1,3.3851806E-2,-3.704264E-2,-1.0510488E0,3.6414526E-2,5.385547E-1,1.2141145E0,3.5278317E-1,1.2775235E0,4.803955E-3,-3.694438E-2,2.6929665E-2,-1.665662E-3,3.703814E-2,2.3348497E-2,1.4501378E-2,-1.994795E-3,2.4962355E-3,3.8840912E-2],"categories":[],"categories_nodes":[],"categories_segments":[],"categories_sizes":[],"default_left":[0,0,0,0,0,0,0,0,0,0,0,0,0,0,0,0,0,0,0,0,0,0,0,0,0,0,0,0,0],"id":34,"left_children":[1,3,-1,5,7,9,-1,11,13,15,17,-1,-1,19,-1,21,23,25,27,-1,-1,-1,-1,-1,-1,-1,-1,-1,-1],"loss_changes":[1.065165E3,8.159916E2,0E0,1.4646228E2,3.8571198E2,7.5576385E1,0E0,3.9471497E1,4.3810654E1,1.565979E0,7.391478E1,0E0,0E0,2.312148E0,0E0,1.5088987E0,2.6156616E-1,6.429245E1,1.8110504E0,0E0,0E0,0E0,0E0,0E0,0E0,0E0,0E0,0E0,0E0],"parents":[2147483647,0,0,1,1,3,3,4,4,5,5,7,7,8,8,9,9,10,10,13,13,15,15,16,16,17,17,18,18],"right_children":[2,4,-1,6,8,10,-1,12,14,16,18,-1,-1,20,-1,22,24,26,28,-1,-1,-1,-1,-1,-1,-1,-1,-1,-1],"split_conditions":[7E0,4.06E2,-3.668913E-2,3E0,1.46309E1,3.1E1,3.720914E-2,6E0,5.47932E3,9E0,5.47932E3,3.3851806E-2,-3.704264E-2,7E0,3.6414526E-2,3E0,2.86401E3,1.98E2,5.8764E0,4.803955E-3,-3.694438E-2,2.6929665E-2,-1.665662E-3,3.703814E-2,2.3348497E-2,1.4501378E-2,-1.994795E-3,2.4962355E-3,3.8840912E-2],"split_indices":[7,3,0,4,9,3,0,1,0,5,0,0,0,1,0,7,0,3,9,0,0,0,0,0,0,0,0,0,0],"split_type":[0,0,0,0,0,0,0,0,0,0,0,0,0,0,0,0,0,0,0,0,0,0,0,0,0,0,0,0,0],"sum_hessian":[2.8225813E3,2.2578928E3,5.646885E2,1.7364502E3,5.214425E2,1.4068567E3,3.295936E2,4.241132E2,9.732931E1,1.4172824E2,1.2651284E3,6.454125E0,4.176591E2,8.677902E0,8.8651405E1,5.839336E0,1.358889E2,1.172579E3,9.2549446E1,1.139727E0,7.538175E0,3.3209293E0,2.5184066E0,1.2803662E2,7.8522854E0,8.939719E2,2.7860703E2,1.3947976E0,9.115465E1],"tree_param":{"num_deleted":"0","num_feature":"12","num_nodes":"29","size_leaf_vector":"1"}},{"base_weights":[5.6426805E-3,3.1022537E-1,-3.645056E-2,6.3221025E-1,-7.7703506E-1,8.138581E-1,1.6845892E-1,3.6335103E-2,-1.1322218E0,1.1851571E0,6.961335E-1,3.6300102E-1,-1.0716627E0,-1.2075781E0,3.4342226E-2,-3.367501E-2,1.1992552E0,7.3120624E-1,-5.1970933E-2,-4.977755E-2,3.7917292E-1,-1.2233874E0,7.2685283E-1,-3.7048705E-2,-6.395536E-1,1.6651077E-2,-1.9350855E-2,1.2361091E-2,3.6244042E-2,1.8589647E-2,3.7708025E-2,-4.4455454E-3,1.3037037E-2,-1.3071774E-3,-3.8619287E-2,3.0309103E-2,-1.9101877E-3,7.3397066E-3,-3.4043096E-2],"categories":[],"categories_nodes":[],"categories_segments":[],"categories_sizes":[],"default_left":[0,0,0,0,0,0,0,0,0,0,0,0,0,0,0,0,0,0,0,0,0,0,0,0,0,0,0,0,0,0,0,0,0,0,0,0,0,0,0],"id":35,"left_children":[1,3,-1,5,7,9,11,-1,13,15,17,19,21,23,-1,25,27,29,-1,-1,31,33,35,-1,37,-1,-1,-1,-1,-1,-1,-1,-1,-1,-1,-1,-1,-1,-1],"loss_changes":[1.0456576E3,7.884639E2,0E0,1.4619586E2,3.6485724E2,5.3723633E1,1.18645584E2,0E0,7.640198E1,5.178131E0,8.2177E1,1.4510216E1,1.9095924E1,5.7994995E0,0E0,1.9386063E0,1.5685425E0,5.4179077E1,0E0,0E0,1.2389244E1,4.6123886E0,1.3680062E0,0E0,9.717096E0,0E0,0E0,0E0,0E0,0E0,0E0,0E0,0E0,0E0,0E0,0E0,0E0,0E0,0E0],"parents":[2147483647,0,0,1,1,3,3,4,4,5,5,6,6,8,8,9,9,10,10,11,11,12,12,13,13,15,15,16,16,17,17,20,20,21,21,22,22,24,24],"right_children":[2,4,-1,6,8,10,12,-1,14,16,18,20,22,24,-1,26,28,30,-1,-1,32,34,36,-1,38,-1,-1,-1,-1,-1,-1,-1,-1,-1,-1,-1,-1,-1,-1],"split_conditions":[7E0,4.06E2,-3.645056E-2,1.0084E3,6E0,3.7E1,2.03E2,3.6335103E-2,1.743483E4,8E0,1.8E1,2.718E2,5.47932E3,2.3E1,3.4342226E-2,6E0,4E0,5.24239E3,-5.1970933E-2,-4.977755E-2,3E0,1.04236E3,2.95E2,-3.7048705E-2,9.3178E2,1.6651077E-2,-1.9350855E-2,1.2361091E-2,3.6244042E-2,1.8589647E-2,3.7708025E-2,-4.4455454E-3,1.3037037E-2,-1.3071774E-3,-3.8619287E-2,3.0309103E-2,-1.9101877E-3,7.3397066E-3,-3.4043096E-2],"split_indices":[7,3,0,8,1,3,3,0,0,5,6,0,0,1,0,1,6,0,0,0,6,8,3,0,8,0,0,0,0,0,0,0,0,0,0,0,0,0,0],"split_type":[0,0,0,0,0,0,0,0,0,0,0,0,0,0,0,0,0,0,0,0,0,0,0,0,0,0,0,0,0,0,0,0,0,0,0,0,0,0,0],"sum_hessian":[2.8104636E3,2.2498267E3,5.606369E2,1.7361084E3,5.137183E2,1.2469376E3,4.8917075E2,7.749878E1,4.3621957E2,2.9799744E2,9.489402E2,4.2344998E2,6.5720764E1,4.2269995E2,1.35196295E1,3.3916261E0,2.946058E2,9.361195E2,1.2820685E1,2.5533984E0,4.2089658E2,6.0902725E1,4.8180375E0,4.0214252E2,2.0557423E1,1.7747382E0,1.6168879E0,3.814693E0,2.907911E2,7.740556E2,1.620639E2,3.9850124E1,3.8104648E2,3.216548E0,5.7686176E1,3.3417914E0,1.476246E0,7.5617857E0,1.2995636E1],"tree_param":{"num_deleted":"0","num_feature":"12","num_nodes":"39","size_leaf_vector":"1"}},{"base_weights":[1.184898E-2,3.115567E-1,-3.621187E-2,5.498315E-1,-1.1124964E0,3.9087325E-1,3.6691926E-2,-1.1446897E-2,-3.612545E-2,5.247478E-1,-5.9066767E-1,-5.648698E-1,7.615495E-1,-1.2497696E0,5.505379E-1,-3.686839E-2,1.157104E0,-6.295527E-2,3.0780914E-1,-7.377339E-3,9.5041245E-1,-5.0428152E-2,3.050282E-2,3.453164E-2,1.44205075E-2,4.7413413E-3,3.5721786E-2,2.674323E-2,-4.0299085E-4,3.7318576E-2,1.43336365E-2],"categories":[],"categories_nodes":[],"categories_segments":[],"categories_sizes":[],"default_left":[0,0,0,0,0,0,0,0,0,0,0,0,0,0,0,0,0,0,0,0,0,0,0,0,0,0,0,0,0,0,0],"id":36,"left_children":[1,3,-1,5,7,9,-1,11,-1,13,15,17,19,21,23,-1,25,-1,27,-1,29,-1,-1,-1,-1,-1,-1,-1,-1,-1,-1],"loss_changes":[1.00730176E3,7.515615E2,0E0,2.0248535E2,3.204355E1,2.0211584E2,0E0,1.130474E1,0E0,6.2561188E1,2.0757559E2,2.1241108E1,2.3327813E0,2.0935068E1,5.5377045E1,0E0,1.4896317E0,0E0,2.014257E0,0E0,7.2305584E-1,0E0,0E0,0E0,0E0,0E0,0E0,0E0,0E0,0E0,0E0],"parents":[2147483647,0,0,1,1,3,3,4,4,5,5,7,7,9,9,10,10,11,11,12,12,13,13,14,14,16,16,18,18,20,20],"right_children":[2,4,-1,6,8,10,-1,12,-1,14,16,18,20,22,24,-1,26,-1,28,-1,30,-1,-1,-1,-1,-1,-1,-1,-1,-1,-1],"split_conditions":[7E0,1.95615E3,-3.621187E-2,3E0,1.98E2,4.06E2,3.6691926E-2,7.586E-1,-3.612545E-2,3E0,5.24239E3,2.25185E3,1.97556E3,8E0,3.1E1,-3.686839E-2,5.47932E3,-6.295527E-2,9E0,-7.377339E-3,1.24302E3,-5.0428152E-2,3.050282E-2,3.453164E-2,1.44205075E-2,4.7413413E-3,3.5721786E-2,2.674323E-2,-4.0299085E-4,3.7318576E-2,1.43336365E-2],"split_indices":[7,8,0,4,3,3,0,10,0,5,0,0,8,6,3,0,0,0,5,0,0,0,0,0,0,0,0,0,0,0,0],"split_type":[0,0,0,0,0,0,0,0,0,0,0,0,0,0,0,0,0,0,0,0,0,0,0,0,0,0,0,0,0,0,0],"sum_hessian":[2.7553057E3,2.2121287E3,5.43177E2,1.8955724E3,3.1655624E2,1.5347744E3,3.6079788E2,2.4420101E1,2.9213614E2,1.350977E3,1.8379738E2,1.4388193E1,1.0031909E1,1.867338E1,1.3323037E3,1.3484824E2,4.8949142E1,4.708622E0,9.679571E0,1.5360459E0,8.495863E0,1.5905914E1,2.7674656E0,1.3721642E2,1.1950873E3,1.7792958E0,4.7169846E1,2.8062334E0,6.8733377E0,4.2341104E0,4.2617526E0],"tree_param":{"num_deleted":"0","num_feature":"12","num_nodes":"31","size_leaf_vector":"1"}},{"base_weights":[4.8097717E-3,3.026879E-1,-3.598657E-2,5.2125084E-1,-1.177987E0,7.03172E-1,6.3004E-2,2.8231934E-2,-3.5825443E-2,5.88485E-1,1.2159064E0,3.6804372E-1,-1.1078273E0,7.122154E-1,-1.1541511E0,3.656335E-2,1.1356252E-2,-4.666822E-2,3.832122E-1,-1.2203748E0,3.1999532E-2,3.524168E-2,1.6360696E-2,-3.8312867E-2,-2.157562E-2,1.2022981E-2,-3.266188E-2,4.155619E-3,-3.723202E-2],"categories":[],"categories_nodes":[],"categories_segments":[],"categories_sizes":[],"default_left":[0,0,0,0,0,0,0,0,0,0,0,0,0,0,0,0,0,0,0,0,0,0,0,0,0,0,0,0,0],"id":37,"left_children":[1,3,-1,5,7,9,11,-1,-1,13,15,17,19,21,23,-1,-1,-1,25,27,-1,-1,-1,-1,-1,-1,-1,-1,-1],"loss_changes":[9.635378E2,6.9743994E2,0E0,1.5642786E2,1.063858E1,7.828583E1,1.9129968E2,0E0,0E0,2.3796487E2,1.2695312E-1,1.2990368E1,2.8398346E1,7.865802E1,3.0010757E0,0E0,0E0,0E0,1.134642E1,3.1451416E0,0E0,0E0,0E0,0E0,0E0,0E0,0E0,0E0,0E0],"parents":[2147483647,0,0,1,1,3,3,4,4,5,5,6,6,9,9,10,10,11,11,12,12,13,13,14,14,18,18,19,19],"right_children":[2,4,-1,6,8,10,12,-1,-1,14,16,18,20,22,24,-1,-1,-1,26,28,-1,-1,-1,-1,-1,-1,-1,-1,-1],"split_conditions":[7E0,2.14104E3,-3.598657E-2,1.0084E3,1.98E2,5.24239E3,2.03E2,2.8231934E-2,-3.5825443E-2,4.06E2,7.96E2,2.718E2,4.6843E0,3.5E1,3.52429E3,3.656335E-2,1.1356252E-2,-4.666822E-2,4.2285E0,1.01714E3,3.1999532E-2,3.524168E-2,1.6360696E-2,-3.8312867E-2,-2.157562E-2,1.2022981E-2,-3.266188E-2,4.155619E-3,-3.723202E-2],"split_indices":[7,8,0,8,3,0,3,0,0,3,3,0,9,3,0,0,0,0,9,8,0,0,0,0,0,0,0,0,0],"split_type":[0,0,0,0,0,0,0,0,0,0,0,0,0,0,0,0,0,0,0,0,0,0,0,0,0,0,0,0,0],"sum_hessian":[2.6837842E3,2.1522188E3,5.315654E2,1.8759562E3,2.7626254E2,1.3424694E3,5.3348676E2,1.6621222E0,2.746004E2,1.0988331E3,2.4363634E2,4.237672E2,1.0971952E2,1.0265382E3,7.2294846E1,2.4234966E2,1.2866874E0,2.5208497E0,4.2124637E2,1.0473726E2,4.9822607E0,2.7055658E2,7.559816E2,5.485401E1,1.7440836E1,4.170011E2,4.2452726E0,1.4855458E0,1.0325171E2],"tree_param":{"num_deleted":"0","num_feature":"12","num_nodes":"29","size_leaf_vector":"1"}},{"base_weights":[-1.3347839E-4,2.9357392E-1,-3.5778373E-2,5.089844E-1,-1.1711552E0,3.5112175E-1,3.6273483E-2,-1.1792449E0,1.1556688E-2,2.6938027E-1,3.7126463E-2,-6.7312956E-1,-3.560481E-2,-8.8086516E-1,3.2221258E-1,1.1714675E-2,-2.9259466E-2,-3.7844904E-2,5.4423017E-3,8.249325E-4,1.5795302E-2],"categories":[],"categories_nodes":[],"categories_segments":[],"categories_sizes":[],"default_left":[0,0,0,0,0,0,0,0,0,0,0,0,0,0,0,0,0,0,0,0,0],"id":38,"left_children":[1,3,-1,5,7,9,-1,11,-1,13,-1,15,-1,17,19,-1,-1,-1,-1,-1,-1],"loss_changes":[9.3049615E2,6.7318646E2,0E0,2.0505109E2,3.8992004E0,1.0969011E2,0E0,2.4655151E-1,0E0,8.484695E1,0E0,2.4158685E0,0E0,2.50452E1,8.013336E1,0E0,0E0,0E0,0E0,0E0,0E0],"parents":[2147483647,0,0,1,1,3,3,4,4,5,5,7,7,9,9,11,11,13,13,14,14],"right_children":[2,4,-1,6,8,10,-1,12,-1,14,-1,16,-1,18,20,-1,-1,-1,-1,-1,-1],"split_conditions":[7E0,2.14104E3,-3.5778373E-2,3E0,4E0,5.47932E3,3.6273483E-2,2.2656E3,1.1556688E-2,4E0,3.7126463E-2,7.3925E2,-3.560481E-2,7E0,1E0,1.1714675E-2,-2.9259466E-2,-3.7844904E-2,5.4423017E-3,8.249325E-4,1.5795302E-2],"split_indices":[7,8,0,4,7,0,0,8,0,5,0,0,0,6,4,0,0,0,0,0,0],"split_type":[0,0,0,0,0,0,0,0,0,0,0,0,0,0,0,0,0,0,0,0,0],"sum_hessian":[2.6547395E3,2.130702E3,5.240377E2,1.8580938E3,2.726082E2,1.5174478E3,3.40646E2,2.714396E2,1.1685638E0,1.3905249E3,1.2692277E2,5.3315206E0,2.661081E2,6.037564E1,1.3301493E3,1.1149529E0,4.216568E0,4.431078E1,1.6064861E1,5.450326E2,7.851167E2],"tree_param":{"num_deleted":"0","num_feature":"12","num_nodes":"21","size_leaf_vector":"1"}},{"base_weights":[-4.4276286E-3,2.837007E-1,-3.5567846E-2,5.796985E-1,-7.557046E-1,4.4822457E-1,3.6027584E-2,3.5491977E-2,-1.1034691E0,6.001065E-1,1.0961596E-1,-1.1868349E0,7.1983224E-1,1.0136179E0,4.8121023E-1,3.0465534E-1,-1.2035538E0,-3.6158055E-2,-7.5799143E-1,-2.9522207E-2,3.238502E-2,1.9669151E-2,3.6285006E-2,1.7022254E-2,-3.8344882E-2,1.0151337E-2,-3.2461133E-2,2.9606069E-2,-3.8827095E-2,-3.3855997E-2,2.1445975E-2],"categories":[],"categories_nodes":[],"categories_segments":[],"categories_sizes":[],"default_left":[0,0,0,0,0,0,0,0,0,0,0,0,0,0,0,0,0,0,0,0,0,0,0,0,0,0,0,0,0,0,0],"id":39,"left_children":[1,3,-1,5,7,9,-1,-1,11,13,15,17,19,21,23,25,27,-1,29,-1,-1,-1,-1,-1,-1,-1,-1,-1,-1,-1,-1],"loss_changes":[8.82117E2,6.415105E2,0E0,1.3197015E2,3.130002E2,6.887973E1,0E0,0E0,6.0514618E1,4.5002686E1,1.07001396E2,2.0565186E0,1.1960983E1,1.3632751E1,1.0999829E2,1.7355255E1,1.2012085E1,0E0,1.0728022E1,0E0,0E0,0E0,0E0,0E0,0E0,0E0,0E0,0E0,0E0,0E0,0E0],"parents":[2147483647,0,0,1,1,3,3,4,4,5,5,8,8,9,9,10,10,11,11,12,12,13,13,14,14,15,15,16,16,18,18],"right_children":[2,4,-1,6,8,10,-1,-1,12,14,16,18,20,22,24,26,28,-1,30,-1,-1,-1,-1,-1,-1,-1,-1,-1,-1,-1,-1],"split_conditions":[7E0,4.06E2,-3.5567846E-2,3E0,6E0,1.08658E3,3.6027584E-2,3.5491977E-2,2.34111E1,5.5E1,2E2,2.3E1,2.3E1,1.5E1,2.2E1,1.7E1,1E0,-3.6158055E-2,5.8764E0,-2.9522207E-2,3.238502E-2,1.9669151E-2,3.6285006E-2,1.7022254E-2,-3.8344882E-2,1.0151337E-2,-3.2461133E-2,2.9606069E-2,-3.8827095E-2,-3.3855997E-2,2.1445975E-2],"split_indices":[7,3,0,4,1,8,0,0,9,3,3,1,1,5,5,5,1,0,9,0,0,0,0,0,0,0,0,0,0,0,0],"split_type":[0,0,0,0,0,0,0,0,0,0,0,0,0,0,0,0,0,0,0,0,0,0,0,0,0,0,0,0,0,0,0],"sum_hessian":[2.5899746E3,2.0826924E3,5.072823E2,1.6213989E3,4.6129346E2,1.3396084E3,2.8179053E2,6.979391E1,3.9149954E2,9.2426135E2,4.153471E2,3.747157E2,1.6783844E1,2.047238E2,7.1953754E2,3.623037E2,5.3043392E1,3.575367E2,1.717898E1,2.6227388E0,1.4161106E1,7.394136E1,1.3078242E2,6.865771E2,3.2960495E1,3.5444016E2,7.863539E0,1.7158077E0,5.1327583E1,1.3912619E1,3.2663603E0],"tree_param":{"num_deleted":"0","num_feature":"12","num_nodes":"31","size_leaf_vector":"1"}},{"base_weights":[-6.098141E-3,2.7838808E-1,-3.5373766E-2,5.127656E-1,-9.9580914E-1,3.5518128E-1,3.5818473E-2,8.762412E-2,-3.540654E-2,4.7573102E-1,-5.664423E-1,2.9530555E-1,-1.2499024E0,1.1341233E0,4.0053096E-1,-1.1944188E0,1.1195966E0,6.823179E-2,9.930798E-1,9.977064E-3,-1.6216117E0,8.640565E-3,3.5045598E-2,9.862084E-3,3.68015E-2,2.9329617E-2,-3.7343044E-2,2.8597855E-3,3.4802992E-2,-1.22651765E-2,1.6262533E-2,1.5579414E-3,3.3733264E-2,-6.4471625E-2,9.031294E-3],"categories":[],"categories_nodes":[],"categories_segments":[],"categories_sizes":[],"default_left":[0,0,0,0,0,0,0,0,0,0,0,0,0,0,0,0,0,0,0,0,0,0,0,0,0,0,0,0,0,0,0,0,0,0,0],"id":40,"left_children":[1,3,-1,5,7,9,-1,11,-1,13,15,17,19,21,23,25,27,29,31,-1,33,-1,-1,-1,-1,-1,-1,-1,-1,-1,-1,-1,-1,-1,-1],"loss_changes":[8.5747186E2,6.181034E2,0E0,1.8714474E2,6.436362E1,1.5808914E2,0E0,1.362264E1,0E0,6.1767975E1,1.7579225E2,6.6041913E0,4.4238014E0,3.3607178E0,6.659114E1,1.439917E1,1.7658691E0,7.6463065E0,1.2106781E0,0E0,6.242591E0,0E0,0E0,0E0,0E0,0E0,0E0,0E0,0E0,0E0,0E0,0E0,0E0,0E0,0E0],"parents":[2147483647,0,0,1,1,3,3,4,4,5,5,7,7,9,9,10,10,11,11,12,12,13,13,14,14,15,15,16,16,17,17,18,18,20,20],"right_children":[2,4,-1,6,8,10,-1,12,-1,14,16,18,20,22,24,26,28,30,32,-1,34,-1,-1,-1,-1,-1,-1,-1,-1,-1,-1,-1,-1,-1,-1],"split_conditions":[7E0,1.86678E3,-3.5373766E-2,3E0,1.83E2,4.06E2,3.5818473E-2,3.81135E3,-3.540654E-2,3.1E1,5.24239E3,3.14807E3,3.9E1,8E0,5.3236E3,3E0,5.47932E3,6.038E-1,7E1,9.977064E-3,2.08631E3,8.640565E-3,3.5045598E-2,9.862084E-3,3.68015E-2,2.9329617E-2,-3.7343044E-2,2.8597855E-3,3.4802992E-2,-1.22651765E-2,1.6262533E-2,1.5579414E-3,3.3733264E-2,-6.4471625E-2,9.031294E-3],"split_indices":[7,8,0,4,3,3,0,0,0,3,0,0,3,5,0,1,0,10,3,0,8,0,0,0,0,0,0,0,0,0,0,0,0,0,0],"split_type":[0,0,0,0,0,0,0,0,0,0,0,0,0,0,0,0,0,0,0,0,0,0,0,0,0,0,0,0,0,0,0,0,0,0,0],"sum_hessian":[2.567527E3,2.0669956E3,5.0053146E2,1.7463646E3,3.2063104E2,1.4195001E3,3.2686444E2,4.6712452E1,2.7391858E2,1.2557323E3,1.6376784E2,4.1108616E1,5.6038337E0,1.27280754E2,1.1284515E3,1.1953705E2,4.423079E1,3.1843655E1,9.264963E0,1.0859478E0,4.5178857E0,5.2918177E0,1.2198894E2,1.0395164E3,8.893523E1,2.290883E0,1.1724617E2,1.8100748E0,4.2420715E1,1.5936309E1,1.5907345E1,1.305684E0,7.959279E0,3.4528975E0,1.0649884E0],"tree_param":{"num_deleted":"0","num_feature":"12","num_nodes":"35","size_leaf_vector":"1"}},{"base_weights":[-4.8190774E-3,2.7636224E-1,-3.5180304E-2,4.7781184E-1,-1.1585302E0,3.2684386E-1,3.5597607E-2,1.2658194E-2,-3.5021223E-2,4.4506595E-1,-5.7847434E-1,1.1290833E0,3.730885E-1,-1.1814888E0,8.1664187E-1,3.4660652E-2,-3.9548147E-3,1.2693334E-2,-1.9018559E-2,2.1570371E-2,-3.6212347E-2,3.4455284E-2,1.7686161E-3],"categories":[],"categories_nodes":[],"categories_segments":[],"categories_sizes":[],"default_left":[0,0,0,0,0,0,0,0,0,0,0,0,0,0,0,0,0,0,0,0,0,0,0],"id":41,"left_children":[1,3,-1,5,7,9,-1,-1,-1,11,13,15,17,19,21,-1,-1,-1,-1,-1,-1,-1,-1],"loss_changes":[8.341395E2,5.923345E2,0E0,1.9178192E2,4.0195312E0,1.5886945E2,0E0,0E0,0E0,6.414166E1,1.4533244E2,4.271881E0,6.011325E1,6.7148285E0,1.3103367E1,0E0,0E0,0E0,0E0,0E0,0E0,0E0,0E0],"parents":[2147483647,0,0,1,1,3,3,4,4,5,5,9,9,10,10,11,11,12,12,13,13,14,14],"right_children":[2,4,-1,6,8,10,-1,-1,-1,12,14,16,18,20,22,-1,-1,-1,-1,-1,-1,-1,-1],"split_conditions":[7E0,2.14104E3,-3.5180304E-2,3E0,2.09E2,4.06E2,3.5597607E-2,1.2658194E-2,-3.5021223E-2,3.1E1,1.31822E1,1.38647E3,2.2E1,2E0,6E0,3.4660652E-2,-3.9548147E-3,1.2693334E-2,-1.9018559E-2,2.1570371E-2,-3.6212347E-2,3.4455284E-2,1.7686161E-3],"split_indices":[7,8,0,4,3,3,0,0,0,3,9,8,5,1,1,0,0,0,0,0,0,0,0],"split_type":[0,0,0,0,0,0,0,0,0,0,0,0,0,0,0,0,0,0,0,0,0,0,0],"sum_hessian":[2.5381804E3,2.0462701E3,4.9191043E2,1.7949392E3,2.5133086E2,1.4809585E3,3.1398068E2,1.138641E0,2.5019221E2,1.3103529E3,1.7060567E2,1.2335899E2,1.1869939E3,1.19225624E2,5.138005E1,1.20923195E2,2.4357915E0,1.131375E3,5.5618896E1,1.2239795E0,1.1800164E2,3.5371506E1,1.6008541E1],"tree_param":{"num_deleted":"0","num_feature":"12","num_nodes":"23","size_leaf_vector":"1"}},{"base_weights":[-1.24623915E-2,2.6125154E-1,-3.5000294E-2,4.8581758E-1,-9.808752E-1,3.3352065E-1,3.5403546E-2,-1.956131E-2,-3.4961294E-2,4.5285225E-1,-5.8204526E-1,1.5440199E-1,-6.284735E-2,1.1071789E0,3.805397E-1,3.4550186E-2,-1.0962845E0,-1.3316664E0,3.2893106E-1,2.3978045E-3,3.4774017E-2,1.2394051E-2,-3.0980969E-2,-3.6792964E-2,1.3056886E-2,-5.4564044E-2,1.4672616E-3,1.3628858E-2,-1.5573102E-2],"categories":[],"categories_nodes":[],"categories_segments":[],"categories_sizes":[],"default_left":[0,0,0,0,0,0,0,0,0,0,0,0,0,0,0,0,0,0,0,0,0,0,0,0,0,0,0,0,0],"id":42,"left_children":[1,3,-1,5,7,9,-1,11,-1,13,15,17,-1,19,21,-1,23,25,27,-1,-1,-1,-1,-1,-1,-1,-1,-1,-1],"loss_changes":[7.8573047E2,5.612511E2,0E0,1.7970676E2,5.463034E1,1.530288E2,0E0,1.860432E1,0E0,5.813553E1,1.4539392E2,1.2796597E1,0E0,6.452484E0,5.183217E1,0E0,2.5487946E1,3.590188E0,4.8544726E0,0E0,0E0,0E0,0E0,0E0,0E0,0E0,0E0,0E0,0E0],"parents":[2147483647,0,0,1,1,3,3,4,4,5,5,7,7,9,9,10,10,11,11,13,13,14,14,16,16,17,17,18,18],"right_children":[2,4,-1,6,8,10,-1,12,-1,14,16,18,-1,20,22,-1,24,26,28,-1,-1,-1,-1,-1,-1,-1,-1,-1,-1],"split_conditions":[7E0,1.86678E3,-3.5000294E-2,3E0,2E2,4.06E2,3.5403546E-2,1.9E1,-3.4961294E-2,3.1E1,6E0,4E0,-6.284735E-2,9E0,1.7E1,3.4550186E-2,2.3E1,1.61E2,2.0142E0,2.3978045E-3,3.4774017E-2,1.2394051E-2,-3.0980969E-2,-3.6792964E-2,1.3056886E-2,-5.4564044E-2,1.4672616E-3,1.3628858E-2,-1.5573102E-2],"split_indices":[7,8,0,4,3,3,0,1,0,3,1,6,0,5,6,0,1,3,9,0,0,0,0,0,0,0,0,0,0],"split_type":[0,0,0,0,0,0,0,0,0,0,0,0,0,0,0,0,0,0,0,0,0,0,0,0,0,0,0,0,0],"sum_hessian":[2.4851182E3,2.009381E3,4.7573724E2,1.7022394E3,3.0714163E2,1.3972325E3,3.050068E2,4.963462E1,2.5750702E2,1.2365681E3,1.6066452E2,4.6649864E1,2.984756E0,1.2163472E2,1.1149333E3,3.6469807E1,1.2419471E2,4.2060885E0,4.2443775E1,5.9779253E0,1.1565679E2,1.0904896E3,2.4443727E1,1.1465091E2,9.543804E0,2.874426E0,1.3316628E0,3.738193E1,5.061843E0],"tree_param":{"num_deleted":"0","num_feature":"12","num_nodes":"29","size_leaf_vector":"1"}},{"base_weights":[2.0400395E-3,2.6936516E-1,-3.482254E-2,4.9443257E-1,-1.008597E0,3.508755E-1,3.521909E-2,-1.6421445E-1,-3.4787025E-2,4.6916422E-1,-5.8925474E-1,-1.6083658E0,8.326229E-2,-6.747641E-1,5.079905E-1,3.430946E-2,-1.0620594E0,-6.1208487E-2,1.0516495E-2,2.0666197E-1,-1.1310946E0,-3.3719264E-2,1.1133073E-2,3.359381E-2,1.3236236E-2,-3.6581602E-2,1.4136199E-2,-4.6121763E-4,1.8395584E-2,1.0189115E-2,-5.4475795E-2],"categories":[],"categories_nodes":[],"categories_segments":[],"categories_sizes":[],"default_left":[0,0,0,0,0,0,0,0,0,0,0,0,0,0,0,0,0,0,0,